{"learner":{"attributes":{"best_iteration":"299","best_ntree_limit":"300","scikit_learn":"{\"use_label_encoder\": null, \"n_estimators\": 300, \"objective\": \"binary:logistic\", \"max_depth\": 5, \"max_leaves\": null, \"max_bin\": null, \"grow_policy\": null, \"learning_rate\": 0.15, \"verbosity\": null, \"booster\": null, \"tree_method\": null, \"gamma\": null, \"min_child_weight\": null, \"max_delta_step\": null, \"subsample\": 0.5, \"sampling_method\": null, \"colsample_bytree\": null, \"colsample_bylevel\": null, \"colsample_bynode\": null, \"reg_alpha\": null, \"reg_lambda\": null, \"scale_pos_weight\": null, \"base_score\": null, \"missing\": NaN, \"num_parallel_tree\": null, \"random_state\": null, \"n_jobs\": null, \"monotone_constraints\": null, \"interaction_constraints\": null, \"importance_type\": null, \"gpu_id\": null, \"validate_parameters\": null, \"predictor\": null, \"enable_categorical\": false, \"feature_types\": null, \"max_cat_to_onehot\": null, \"max_cat_threshold\": null, \"eval_metric\": null, \"early_stopping_rounds\": null, \"callbacks\": null, \"classes_\": [0, 1], \"n_classes_\": 2, \"_estimator_type\": \"classifier\"}"},"feature_names":["checking_status","duration","credit_history","purpose","credit_amount","savings_status","employment","installment_commitment","personal_status","other_parties","residence_since","property_magnitude","age","other_payment_plans","housing","existing_credits","job","own_telephone"],"feature_types":["int","float","int","int","float","int","int","float","int","int","float","int","float","int","int","float","int","int"],"gradient_booster":{"model":{"gbtree_model_param":{"num_parallel_tree":"1","num_trees":"300","size_leaf_vector":"0"},"tree_info":[0,0,0,0,0,0,0,0,0,0,0,0,0,0,0,0,0,0,0,0,0,0,0,0,0,0,0,0,0,0,0,0,0,0,0,0,0,0,0,0,0,0,0,0,0,0,0,0,0,0,0,0,0,0,0,0,0,0,0,0,0,0,0,0,0,0,0,0,0,0,0,0,0,0,0,0,0,0,0,0,0,0,0,0,0,0,0,0,0,0,0,0,0,0,0,0,0,0,0,0,0,0,0,0,0,0,0,0,0,0,0,0,0,0,0,0,0,0,0,0,0,0,0,0,0,0,0,0,0,0,0,0,0,0,0,0,0,0,0,0,0,0,0,0,0,0,0,0,0,0,0,0,0,0,0,0,0,0,0,0,0,0,0,0,0,0,0,0,0,0,0,0,0,0,0,0,0,0,0,0,0,0,0,0,0,0,0,0,0,0,0,0,0,0,0,0,0,0,0,0,0,0,0,0,0,0,0,0,0,0,0,0,0,0,0,0,0,0,0,0,0,0,0,0,0,0,0,0,0,0,0,0,0,0,0,0,0,0,0,0,0,0,0,0,0,0,0,0,0,0,0,0,0,0,0,0,0,0,0,0,0,0,0,0,0,0,0,0,0,0,0,0,0,0,0,0,0,0,0,0,0,0,0,0,0,0,0,0,0,0,0,0,0,0,0,0,0,0,0,0],"trees":[{"base_weights":[-6.1643835E-2,1.0943396E0,-4.8951048E-1,6.3529414E-1,1.5384616E0,5.846154E-1,-9.438944E-1,-3.7037036E-1,1.032258E0,1.75E0,1.0588236E0,-5.7142857E-2,1.25E0,-1.230047E0,-2.5531915E-1,-1.2E0,5E-1,6E-1,1.5384616E0,1.3333334E0,2.857143E-1,6.3414633E-1,-9.0909094E-1,2E-1,1.5833334E0,-1.3267326E0,4E-1,5E-2,-1.5555556E0,8E-1,-0E0,-2.857143E-1,9.3333334E-1,-6.666667E-1,1.1111112E0,-2.5E-1,1.0344827E0,-4E-1,-1.2941177E0,1.2727273E0,-7.692308E-1,-5E-1,-1.4482758E0,-5E-1,9.0909094E-1,-1.971831E-1,1.3846154E0],"categories":[],"categories_nodes":[],"categories_segments":[],"categories_sizes":[],"default_left":[1,1,1,1,1,1,1,1,1,0,1,1,1,1,1,0,1,1,0,0,1,1,1,1,0,1,1,1,0,0,0,0,0,0,0,0,0,0,0,0,0,0,0,0,0,0,0],"id":0,"left_children":[1,3,5,7,9,11,13,15,17,-1,19,21,23,25,27,-1,29,31,-1,-1,33,35,37,39,-1,41,43,45,-1,-1,-1,-1,-1,-1,-1,-1,-1,-1,-1,-1,-1,-1,-1,-1,-1,-1,-1],"loss_changes":[7.274828E1,7.126541E0,5.2896843E1,8.865584E0,1.2556458E-1,1.394945E1,1.4611542E1,5.4740744E0,2.4684868E0,0E0,1.4229698E0,1.088299E1,5.2833347E0,8.923012E0,9.406975E0,0E0,6E-1,3.2190475E0,0E0,0E0,3.4920633E0,3.88667E0,1.0994654E0,6.177623E0,0E0,4.3502884E0,2.172727E0,6.8709097E0,0E0,0E0,0E0,0E0,0E0,0E0,0E0,0E0,0E0,0E0,0E0,0E0,0E0,0E0,0E0,0E0,0E0,0E0,0E0],"parents":[2147483647,0,0,1,1,2,2,3,3,4,4,5,5,6,6,7,7,8,8,10,10,11,11,12,12,13,13,14,14,16,16,17,17,20,20,21,21,22,22,23,23,25,25,26,26,27,27],"right_children":[2,4,6,8,10,12,14,16,18,-1,20,22,24,26,28,-1,30,32,-1,-1,34,36,38,40,-1,42,44,46,-1,-1,-1,-1,-1,-1,-1,-1,-1,-1,-1,-1,-1,-1,-1,-1,-1,-1,-1],"split_conditions":[1.1977898E-1,2.5E0,5E-1,1.5E0,1.1029412E-1,2.5E0,5E-1,5.862771E-2,3.0357143E-1,2.6250002E-1,1.5E0,1.9868189E-1,2.9118168E-1,2.5E0,5.001926E-1,-1.8E-1,2.5E0,1.5E0,2.3076925E-1,2.0000002E-1,2.5E0,1.5E0,2.465403E0,2.1014476E-1,2.3750001E-1,5E-1,1.4460218E-1,1.5E0,-2.3333335E-1,1.20000005E-1,-0E0,-4.2857148E-2,1.4E-1,-1.0000001E-1,1.6666669E-1,-3.75E-2,1.5517241E-1,-6.0000002E-2,-1.9411767E-1,1.909091E-1,-1.1538462E-1,-7.5E-2,-2.1724138E-1,-7.5E-2,1.3636364E-1,-2.9577466E-2,2.0769233E-1],"split_indices":[1,11,0,3,1,6,17,4,12,0,8,4,1,0,4,0,6,14,0,0,10,14,7,1,0,5,4,13,0,0,0,0,0,0,0,0,0,0,0,0,0,0,0,0,0,0,0],"split_type":[0,0,0,0,0,0,0,0,0,0,0,0,0,0,0,0,0,0,0,0,0,0,0,0,0,0,0,0,0,0,0,0,0,0,0,0,0,0,0,0,0,0,0,0,0,0,0],"sum_hessian":[1.45E2,3.875E1,1.0625E2,2.025E1,1.85E1,3.15E1,7.475E1,5.75E0,1.45E1,1.1E1,7.5E0,1.65E1,1.5E1,5.225E1,2.25E1,2.75E0,3E0,9E0,5.5E0,5E0,2.5E0,9.25E0,7.25E0,4E0,1.1E1,4.95E1,2.75E0,1.9E1,3.5E0,1.5E0,1.5E0,2.5E0,6.5E0,1.25E0,1.25E0,3E0,6.25E0,4E0,3.25E0,1.75E0,2.25E0,7E0,4.25E1,1E0,1.75E0,1.675E1,2.25E0],"tree_param":{"num_deleted":"0","num_feature":"18","num_nodes":"47","size_leaf_vector":"0"}},{"base_weights":[4.3009143E-2,1.0220227E0,-4.829753E-1,4.852271E-1,1.2637552E0,3.9977702E-1,-8.107593E-1,8.672088E-1,-9.471789E-1,1.3925635E0,5.846552E-1,6.3020444E-1,-1.343949E0,-1.0912101E0,-4.5418698E-1,-6.796553E-2,1.1352568E0,-2.2226286E-1,-1.1962941E0,1.6423221E0,1.0204986E0,-2.811169E-1,1.0541617E0,-3.8440815E-1,9.7181576E-1,3.9006928E-1,-1.211759E0,-1.0500355E0,-6.1477456E-2,-8.4784764E-1,7.395522E-1,1.5522909E0,5.008195E-1,-3.0716777E-1,1.1809692E0,1.2982166E0,3.1253633E-1,-1.2897519E0,7.630957E-1,-5.529524E-2,1.33102E0,7.939701E-1,-1.8529321E-1,-6.5026677E-1,-1.4346849E0,-1.275551E0,7.0197575E-2,-8.5017586E-1,6.4112365E-1],"categories":[],"categories_nodes":[],"categories_segments":[],"categories_sizes":[],"default_left":[1,1,1,1,1,1,1,1,1,1,1,1,0,1,1,1,1,0,0,0,1,0,1,1,1,1,1,1,1,0,0,0,0,0,0,0,0,0,0,0,0,0,0,0,0,0,0,0,0],"id":1,"left_children":[1,3,5,7,9,11,13,15,17,19,21,23,-1,25,27,29,31,-1,-1,-1,33,-1,35,37,39,41,43,45,47,-1,-1,-1,-1,-1,-1,-1,-1,-1,-1,-1,-1,-1,-1,-1,-1,-1,-1,-1,-1],"loss_changes":[7.120997E1,5.656296E0,2.6369257E1,9.91798E0,2.0453987E0,1.090922E1,6.101364E0,3.498128E0,4.524989E-1,8.102455E-1,3.1155872E0,8.276307E0,0E0,6.9391174E0,7.132213E0,3.1358843E0,2.0439377E0,0E0,0E0,0E0,3.2149563E0,0E0,4.4630384E-1,7.6950407E0,6.471386E0,9.562451E-1,3.289257E0,3.1604576E0,1.1406347E1,0E0,0E0,0E0,0E0,0E0,0E0,0E0,0E0,0E0,0E0,0E0,0E0,0E0,0E0,0E0,0E0,0E0,0E0,0E0,0E0],"parents":[2147483647,0,0,1,1,2,2,3,3,4,4,5,5,6,6,7,7,8,8,9,9,10,10,11,11,13,13,14,14,15,15,16,16,20,20,22,22,23,23,24,24,25,25,26,26,27,27,28,28],"right_children":[2,4,6,8,10,12,14,16,18,20,22,24,-1,26,28,30,32,-1,-1,-1,34,-1,36,38,40,42,44,46,48,-1,-1,-1,-1,-1,-1,-1,-1,-1,-1,-1,-1,-1,-1,-1,-1,-1,-1,-1,-1],"split_conditions":[5E-1,1.9058138E-1,1.1977898E-1,2.5250894E-1,5E-1,2.5E0,1.5E0,1.5E0,2.7686722E0,1.20953426E-1,1.519428E-1,1.5E0,-2.0159236E-1,1.0256507E0,1.5E0,9.849403E-2,3.3273194E0,-3.333943E-2,-1.7944412E-1,2.4634832E-1,1.3065857E-1,-4.2167537E-2,3.2335228E-1,6.734896E-2,3.562782E-2,2E0,2.1060982E0,5E-1,1.5E0,-1.2717715E-1,1.10932834E-1,2.3284365E-1,7.512293E-2,-4.6075165E-2,1.7714539E-1,1.947325E-1,4.688045E-2,-1.9346279E-1,1.1446436E-1,-8.294286E-3,1.9965301E-1,1.1909552E-1,-2.7793983E-2,-9.754002E-2,-2.1520273E-1,-1.9133265E-1,1.0529636E-2,-1.2752639E-1,9.6168555E-2],"split_indices":[0,12,1,4,13,2,0,6,7,4,1,14,0,10,6,4,7,0,0,0,4,0,12,4,4,6,7,13,11,0,0,0,0,0,0,0,0,0,0,0,0,0,0,0,0,0,0,0,0],"split_type":[0,0,0,0,0,0,0,0,0,0,0,0,0,0,0,0,0,0,0,0,0,0,0,0,0,0,0,0,0,0,0,0,0,0,0,0,0,0,0,0,0,0,0,0,0,0,0,0,0],"sum_hessian":[1.3632774E2,4.731583E1,8.901191E1,1.5625296E1,3.1690535E1,2.4042803E1,6.496911E1,1.2647222E1,2.9780734E0,2.5754879E1,5.9356556E0,2.1800526E1,2.2422776E0,3.5213085E1,2.9756023E1,2.983775E0,9.663447E0,1.2456081E0,1.7324653E0,1.3367506E1,1.2387373E1,2.228163E0,3.7074924E0,5.459651E0,1.6340874E1,2.4817765E0,3.2731308E1,1.1155792E1,1.8600231E1,1.492454E0,1.491321E0,4.957812E0,4.7056355E0,1.2371933E0,1.115018E1,2.2248385E0,1.4826539E0,2.982551E0,2.4771001E0,4.4532585E0,1.1887616E1,1.2349217E0,1.2468548E0,1.0415167E1,2.231614E1,9.170933E0,1.98486E0,8.664234E0,9.935997E0],"tree_param":{"num_deleted":"0","num_feature":"18","num_nodes":"49","size_leaf_vector":"0"}},{"base_weights":[-6.681184E-2,6.046844E-1,-4.0474504E-1,8.185022E-1,-6.0582495E-1,-4.978196E-1,1.3757296E0,3.6349106E-1,1.2102706E0,-1.2406656E0,3.1382883E-1,-5.877073E-1,1.0818968E0,7.16277E-1,-6.047008E-1,2.0122771E-1,1.3903116E0,-1.4868878E0,-3.014389E-1,7.036385E-1,-2.947059E-1,-6.78959E-1,6.9067484E-1,1.4495994E-1,1.338413E0,9.7382766E-1,7.449302E-2,2.0169252E-1,-8.599243E-1,1.1070278E0,-9.478234E-1,1.5395261E0,2.0981155E-1,2.0161265E-1,-8.1139165E-1,-2.2898106E-1,9.6336246E-1],"categories":[],"categories_nodes":[],"categories_segments":[],"categories_sizes":[],"default_left":[1,1,1,1,1,1,0,1,1,1,1,1,1,1,1,1,1,0,0,0,0,1,1,0,0,0,0,0,0,0,0,0,0,0,0,0,0],"id":2,"left_children":[1,3,5,7,9,11,-1,13,15,17,19,21,23,25,27,29,31,-1,-1,-1,-1,33,35,-1,-1,-1,-1,-1,-1,-1,-1,-1,-1,-1,-1,-1,-1],"loss_changes":[3.1843178E1,1.2665499E1,1.6134739E1,6.759102E0,4.845728E0,1.3320904E1,0E0,7.303277E0,3.5845928E0,6.4278173E-1,1.1361345E0,1.0404617E1,1.0464978E0,2.439869E0,1.390583E0,5.618394E0,2.8267708E0,0E0,0E0,0E0,0E0,9.493076E0,1.7679682E0,0E0,0E0,0E0,0E0,0E0,0E0,0E0,0E0,0E0,0E0,0E0,0E0,0E0,0E0],"parents":[2147483647,0,0,1,1,2,2,3,3,4,4,5,5,7,7,8,8,9,9,10,10,11,11,12,12,13,13,14,14,15,15,16,16,21,21,22,22],"right_children":[2,4,6,8,10,12,-1,14,16,18,20,22,24,26,28,30,32,-1,-1,-1,-1,34,36,-1,-1,-1,-1,-1,-1,-1,-1,-1,-1,-1,-1,-1,-1],"split_conditions":[5E-1,5E-1,1.5E0,2.4303883E-1,1.5E0,2.5E0,2.0635945E-1,3.9421386E-1,1.5E0,6.120752E-1,2.5892857E-1,2.5E0,5.196985E-2,3.2647629E0,1.2259957E-1,1.8382353E-1,6.25E-1,-2.2303317E-1,-4.5215838E-2,1.0554578E-1,-4.4205885E-2,5E-1,5.700451E-2,2.1743992E-2,2.0076196E-1,1.4607416E-1,1.1173953E-2,3.025388E-2,-1.2898865E-1,1.6605417E-1,-1.4217351E-1,2.3092893E-1,3.1471733E-2,3.02419E-2,-1.2170875E-1,-3.434716E-2,1.4450437E-1],"split_indices":[0,13,9,12,3,5,0,1,16,1,12,0,4,10,12,1,12,0,0,0,0,2,4,0,0,0,0,0,0,0,0,0,0,0,0,0,0],"split_type":[0,0,0,0,0,0,0,0,0,0,0,0,0,0,0,0,0,0,0,0,0,0,0,0,0,0,0,0,0,0,0,0,0,0,0,0,0],"sum_hessian":[1.3824869E2,4.6018143E1,9.223054E1,3.9385193E1,6.6329494E0,8.8333305E1,3.8972352E0,1.9113752E1,2.027144E1,3.7176108E0,2.9153385E0,8.41718E1,4.161506E0,1.4199856E1,4.913897E0,3.3899698E0,1.6881472E1,2.4834623E0,1.2341486E0,1.6817653E0,1.2335732E0,7.900151E1,5.170286E0,1.2308569E0,2.930649E0,9.764104E0,4.4357524E0,1.231775E0,3.6821218E0,1.9160862E0,1.4738836E0,1.4717107E1,2.164364E0,1.0259774E1,6.874174E1,1.2190948E0,3.9511917E0],"tree_param":{"num_deleted":"0","num_feature":"18","num_nodes":"37","size_leaf_vector":"0"}},{"base_weights":[1.2898708E-2,6.909531E-1,-3.5288256E-1,-7.169197E-2,8.782025E-1,9.149563E-1,-5.715141E-1,-1.2472547E0,4.2398828E-1,1.0176302E0,9.217785E-2,1.195043E0,-9.6988577E-1,-2.4650322E-1,-1.0360252E0,-6.687363E-1,9.1864026E-1,4.26346E-1,1.113802E0,7.307041E-1,-4.5816115E-1,1.722243E-1,1.4461627E0,2.9599413E-1,-5.3971714E-1,5.0728935E-1,-1.2097864E0,1.3118299E0,-1.5715705E-1,-5.5677396E-1,1.1535437E0,7.540952E-1,1.3089111E0,5.9175666E-2,1.0687681E0,-1.0089E0,4.9670643E-1,-2.954308E-1,5.603673E-1,4.4164523E-1,-6.832894E-1,-8.898663E-1,1.8816839E-1,9.08034E-1,-1.5866883E-1,-4.620607E-1,-1.255073E0],"categories":[],"categories_nodes":[],"categories_segments":[],"categories_sizes":[],"default_left":[1,1,1,1,1,1,1,0,1,1,1,1,0,1,1,0,1,1,1,1,1,1,0,1,1,1,1,0,0,0,0,0,0,0,0,0,0,0,0,0,0,0,0,0,0,0,0],"id":3,"left_children":[1,3,5,7,9,11,13,-1,15,17,19,21,-1,23,25,-1,27,29,31,33,35,37,-1,39,41,43,45,-1,-1,-1,-1,-1,-1,-1,-1,-1,-1,-1,-1,-1,-1,-1,-1,-1,-1,-1,-1],"loss_changes":[3.232859E1,6.5848274E0,2.3999218E1,6.313465E0,3.9329453E0,7.938259E0,1.0743269E1,0E0,4.792101E0,1.2940483E0,2.6664283E0,2.7375908E0,0E0,7.186525E0,8.572399E0,0E0,2.6349592E0,4.9117374E0,8.4719086E-1,7.2153544E-1,2.6984305E0,7.8766567E-1,0E0,2.604558E0,7.566265E0,1.133626E0,3.333435E-1,0E0,0E0,0E0,0E0,0E0,0E0,0E0,0E0,0E0,0E0,0E0,0E0,0E0,0E0,0E0,0E0,0E0,0E0,0E0,0E0],"parents":[2147483647,0,0,1,1,2,2,3,3,4,4,5,5,6,6,8,8,9,9,10,10,11,11,13,13,14,14,16,16,17,17,18,18,19,19,20,20,21,21,23,23,24,24,25,25,26,26],"right_children":[2,4,6,8,10,12,14,-1,16,18,20,22,-1,24,26,-1,28,30,32,34,36,38,-1,40,42,44,46,-1,-1,-1,-1,-1,-1,-1,-1,-1,-1,-1,-1,-1,-1,-1,-1,-1,-1,-1,-1],"split_conditions":[5E-1,1.5E0,1.0366573E-1,5E-1,5E-1,2.5E0,2.941755E-1,-1.8708822E-1,1.1501695E-1,1.5E0,1.1334874E-1,1.5E0,-1.4548287E-1,2.0188017E0,1.0097535E0,-1.00310445E-1,7.5E0,2.5E0,2.2804609E-1,1.5E0,1.5E0,1.5E0,2.1692441E-1,4.1763353E-1,1.5E0,2.4108312E-1,5E-1,1.967745E-1,-2.3573559E-2,-8.35161E-2,1.7303157E-1,1.1311428E-1,1.9633667E-1,8.876351E-3,1.6031523E-1,-1.5133502E-1,7.450597E-2,-4.4314623E-2,8.4055096E-2,6.6246785E-2,-1.0249341E-1,-1.3347995E-1,2.822526E-2,1.362051E-1,-2.3800327E-2,-6.930911E-2,-1.8826096E-1],"split_indices":[0,6,1,3,13,2,1,0,12,16,4,14,0,7,10,0,3,11,12,2,11,15,0,4,0,12,6,0,0,0,0,0,0,0,0,0,0,0,0,0,0,0,0,0,0,0,0],"split_type":[0,0,0,0,0,0,0,0,0,0,0,0,0,0,0,0,0,0,0,0,0,0,0,0,0,0,0,0,0,0,0,0,0,0,0,0,0,0,0,0,0,0,0,0,0,0,0],"sum_hessian":[1.2836383E2,4.4669785E1,8.3694046E1,8.927254E0,3.574253E1,1.1841364E1,7.1852684E1,2.198058E0,6.729196E0,3.0107334E1,5.635198E0,1.0628016E1,1.2133471E0,4.3174706E1,2.8677977E1,1.9872575E0,4.7419386E0,4.9719396E0,2.5135393E1,2.456884E0,3.1783142E0,2.4273138E0,8.200703E0,1.5144757E1,2.802995E1,2.707855E0,2.5970121E1,3.3120322E0,1.4299065E0,2.2136278E0,2.7583117E0,1.0550079E1,1.4585315E1,1.2161578E0,1.2407262E0,1.9798244E0,1.1984897E0,1.2092303E0,1.2180834E0,1.3661817E1,1.4829414E0,1.8775475E1,9.254474E0,1.463615E0,1.24424E0,2.1228485E0,2.3847273E1],"tree_param":{"num_deleted":"0","num_feature":"18","num_nodes":"47","size_leaf_vector":"0"}},{"base_weights":[-3.575389E-3,6.568017E-1,-3.3271325E-1,3.950588E-2,8.573647E-1,-5.127248E-1,3.4867042E-1,-7.450764E-1,4.873151E-1,1.04524E0,4.777887E-2,1.6486892E-1,-7.364938E-1,6.688056E-1,-7.730364E-1,1.198584E-1,-1.3419797E0,9.8013794E-1,-1.9166838E-1,1.1863195E0,3.2043087E-1,-9.934701E-1,7.5015813E-1,1.2634447E0,-1.3511857E-1,-8.1137127E-1,6.074877E-1,-2.3016486E-1,9.501565E-1,-1.1967411E0,2.4251573E-1,-7.8904504E-1,2.880372E-1,5.7770777E-1,1.2646918E0,-5.5764693E-1,1.1040388E0,1.1537256E0,1.2843737E-1,1.478804E0,4.0497783E-1,-7.4239105E-1,3.976161E-1,7.6540366E-2,-9.149522E-1,-9.117147E-1,4.9523884E-1,2.7470136E-1,1.2052413E0],"categories":[],"categories_nodes":[],"categories_segments":[],"categories_sizes":[],"default_left":[1,1,1,1,1,1,1,1,1,1,1,1,1,1,1,0,0,0,1,1,1,0,1,1,1,1,0,1,1,0,0,0,0,0,0,0,0,0,0,0,0,0,0,0,0,0,0,0,0],"id":4,"left_children":[1,3,5,7,9,11,13,15,17,19,21,23,25,27,29,-1,-1,-1,31,33,35,-1,37,39,41,43,-1,45,47,-1,-1,-1,-1,-1,-1,-1,-1,-1,-1,-1,-1,-1,-1,-1,-1,-1,-1,-1,-1],"loss_changes":[2.952486E1,5.560293E0,1.1297246E1,4.6244955E0,5.129982E0,1.1054857E1,7.5331807E0,2.6403742E0,2.9739804E0,2.4414368E0,6.2029147E0,6.339568E0,5.9663887E0,4.198824E0,2.356497E0,0E0,0E0,0E0,1.4704441E0,3.5344124E-1,4.6517706E0,0E0,1.1129072E0,1.6127872E-1,5.3442326E0,4.8477173E0,0E0,2.7040162E0,1.7675648E0,0E0,0E0,0E0,0E0,0E0,0E0,0E0,0E0,0E0,0E0,0E0,0E0,0E0,0E0,0E0,0E0,0E0,0E0,0E0,0E0],"parents":[2147483647,0,0,1,1,2,2,3,3,4,4,5,5,6,6,7,7,8,8,9,9,10,10,11,11,12,12,13,13,14,14,18,18,19,19,20,20,22,22,23,23,24,24,25,25,27,27,28,28],"right_children":[2,4,6,8,10,12,14,16,18,20,22,24,26,28,30,-1,-1,-1,32,34,36,-1,38,40,42,44,-1,46,48,-1,-1,-1,-1,-1,-1,-1,-1,-1,-1,-1,-1,-1,-1,-1,-1,-1,-1,-1,-1],"split_conditions":[5E-1,1.5E0,2.5E0,1.5E0,5E-1,1.5E0,2.6297444E-1,1.0481613E0,3.5E0,4.323429E-1,1.5E0,5E-1,2.5E0,1.9085355E0,5E-1,1.7978761E-2,-2.0129697E-1,1.470207E-1,6.5E0,1.5E0,1.9058138E-1,-1.4902052E-1,2.5E0,3.6653864E-1,1.8027242E0,1.0029739E0,9.1123156E-2,1.5E0,1.3392857E-1,-1.7951117E-1,3.637736E-2,-1.1835676E-1,4.320558E-2,8.665617E-2,1.8970378E-1,-8.364704E-2,1.6560583E-1,1.7305885E-1,1.9265607E-2,2.2182061E-1,6.0746677E-2,-1.11358665E-1,5.9642415E-2,1.1481055E-2,-1.3724284E-1,-1.3675721E-1,7.428583E-2,4.1205205E-2,1.807862E-1],"split_indices":[0,14,11,3,13,2,1,15,7,1,3,5,5,10,17,0,0,0,3,6,12,0,6,12,15,10,0,16,12,0,0,0,0,0,0,0,0,0,0,0,0,0,0,0,0,0,0,0,0],"split_type":[0,0,0,0,0,0,0,0,0,0,0,0,0,0,0,0,0,0,0,0,0,0,0,0,0,0,0,0,0,0,0,0,0,0,0,0,0,0,0,0,0,0,0,0,0,0,0,0,0],"sum_hessian":[1.3383159E2,4.4184658E1,8.9646935E1,1.1128907E1,3.3055748E1,7.110861E1,1.8538326E1,3.8026552E0,7.326252E0,2.6593327E1,6.462422E0,1.7718508E1,5.33901E1,1.4736337E1,3.80199E0,1.8790469E0,1.9236083E0,3.9880733E0,3.3381789E0,2.172748E1,4.865848E0,2.4362879E0,4.026134E0,3.1116748E0,1.4606833E1,5.094792E1,2.442177E0,3.5560389E0,1.1180298E1,2.5568266E0,1.2451633E0,1.1995403E0,2.1386385E0,3.4337237E0,1.8293756E1,2.430591E0,2.435257E0,1.9225096E0,2.1036243E0,1.9099295E0,1.2017454E0,6.641985E0,7.964849E0,5.3497868E0,4.5598137E1,1.7010176E0,1.8550212E0,3.6341379E0,7.54616E0],"tree_param":{"num_deleted":"0","num_feature":"18","num_nodes":"49","size_leaf_vector":"0"}},{"base_weights":[5.3137913E-2,5.972223E-1,-2.32835E-1,2.2230889E-1,1.0098407E0,-5.8726954E-1,1.8358216E-1,5.6272954E-1,-5.911957E-1,4.3339708E-1,1.1913013E0,-7.660224E-1,6.650882E-1,2.2295963E-2,9.544215E-1,-5.432601E-1,7.825357E-1,3.4611332E-1,-8.5525095E-1,-5.5894274E-1,8.892242E-1,5.511936E-1,1.3430989E0,-9.0402794E-1,1.1744493E0,1.3304846E0,7.258968E-2,-2.8648254E-1,5.673372E-1,1.3927004E0,-1.0022146E-2,-1.0382015E0,1.4734498E-1,9.4169575E-1,-3.2885423E-1,-1.918806E-1,-1.150128E0,1.1600168E0,8.611362E-3,7.5810533E-3,9.423108E-1,-1.1281644E0,1.3159187E-1,5.211784E-1,-5.270366E-1,6.9438076E-1,-4.7800806E-1,-1.0373906E0,9.6115565E-1],"categories":[],"categories_nodes":[],"categories_segments":[],"categories_sizes":[],"default_left":[1,1,1,1,1,1,1,1,1,1,1,1,1,1,1,1,1,0,1,0,1,1,0,1,0,0,1,1,1,0,0,0,0,0,0,0,0,0,0,0,0,0,0,0,0,0,0,0,0],"id":5,"left_children":[1,3,5,7,9,11,13,15,17,19,21,23,25,27,29,31,33,-1,35,-1,37,39,-1,41,-1,-1,43,45,47,-1,-1,-1,-1,-1,-1,-1,-1,-1,-1,-1,-1,-1,-1,-1,-1,-1,-1,-1,-1],"loss_changes":[2.0508286E1,6.796076E0,1.2879037E1,7.2726927E0,1.7140942E0,1.1027014E1,5.0198936E0,4.8446126E0,2.246497E0,3.5172815E0,7.7993965E-1,1.2196306E1,2.428004E0,5.978198E0,2.9695034E0,1.3849382E0,3.064767E0,0E0,1.0384026E0,0E0,1.1731052E0,9.911146E-1,0E0,9.290024E0,0E0,0E0,1.4703323E0,4.6007614E0,9.106853E0,0E0,0E0,0E0,0E0,0E0,0E0,0E0,0E0,0E0,0E0,0E0,0E0,0E0,0E0,0E0,0E0,0E0,0E0,0E0,0E0],"parents":[2147483647,0,0,1,1,2,2,3,3,4,4,5,5,6,6,7,7,8,8,9,9,10,10,11,11,12,12,13,13,14,14,15,15,16,16,18,18,20,20,21,21,23,23,26,26,27,27,28,28],"right_children":[2,4,6,8,10,12,14,16,18,20,22,24,26,28,30,32,34,-1,36,-1,38,40,-1,42,-1,-1,44,46,48,-1,-1,-1,-1,-1,-1,-1,-1,-1,-1,-1,-1,-1,-1,-1,-1,-1,-1,-1,-1],"split_conditions":[5E-1,2.5E0,1.5E0,2.2238728E-1,1.5E0,2.5E0,2.5E0,5E-1,5E-1,1.5E0,6.8256855E-2,1.5E0,5E-1,2.5E0,2.5E0,1.5E0,2.9781663E-1,5.1917E-2,5E-1,-8.384141E-2,3.75E-1,1.5693426E0,2.0146485E-1,2.5E0,1.761674E-1,1.995727E-1,2.731645E-1,5E-1,5E-1,2.0890507E-1,-1.5033219E-3,-1.5573022E-1,2.2101747E-2,1.4125437E-1,-4.9328137E-2,-2.878209E-2,-1.725192E-1,1.7400253E-1,1.2917044E-3,1.137158E-3,1.4134663E-1,-1.6922466E-1,1.9738782E-2,7.817677E-2,-7.9055496E-2,1.0415712E-1,-7.170121E-2,-1.556086E-1,1.4417335E-1],"split_indices":[0,6,0,4,3,16,0,3,11,11,4,9,2,6,11,6,1,0,2,0,12,15,0,11,0,0,4,5,14,0,0,0,0,0,0,0,0,0,0,0,0,0,0,0,0,0,0,0,0],"split_type":[0,0,0,0,0,0,0,0,0,0,0,0,0,0,0,0,0,0,0,0,0,0,0,0,0,0,0,0,0,0,0,0,0,0,0,0,0,0,0,0,0,0,0,0,0,0,0,0,0],"sum_hessian":[1.2991322E2,4.4382973E1,8.553024E1,2.4060179E1,2.0322792E1,4.598214E1,3.9548107E1,1.7179485E1,6.880695E0,5.677028E0,1.4645764E1,4.057857E1,5.4035683E0,3.3555965E1,5.9921412E0,2.6042485E0,1.4575236E1,1.4440461E0,5.4366484E0,1.7157053E0,3.961323E0,3.6951165E0,1.0950647E1,3.838291E1,2.1956582E0,1.958526E0,3.4450421E0,2.1723488E1,1.1832477E1,3.8146005E0,2.177541E0,1.2238331E0,1.3804154E0,1.2882976E1,1.6922606E0,2.1809611E0,3.2556872E0,2.787018E0,1.1743048E0,1.9726793E0,1.7224373E0,3.1480343E1,6.902569E0,2.045559E0,1.3994831E0,3.1199093E0,1.8603579E1,2.0095987E0,9.822878E0],"tree_param":{"num_deleted":"0","num_feature":"18","num_nodes":"49","size_leaf_vector":"0"}},{"base_weights":[3.0497892E-2,6.440931E-1,-2.3215787E-1,-1.2045322E-1,9.069091E-1,3.252637E-1,-4.8716366E-1,-5.5978656E-1,6.183758E-1,-2.2307986E-1,1.0583441E0,-4.5891422E-1,5.499222E-1,-7.6679736E-1,-1.4613886E-1,-9.678925E-1,2.6076323E-1,-3.1908593E-1,1.0675786E0,5.158629E-1,-6.7890537E-1,4.813021E-1,1.2416837E0,-8.711048E-1,1.2945305E-1,6.787439E-1,-6.8436414E-1,-9.059227E-1,9.1505146E-1,7.6067924E-1,-3.2783368E-1,-1.9485442E-1,-1.2093714E0,1.1338527E0,-2.9468983E-1,-3.1943433E-2,-1.1550592E0,-4.457302E-1,5.6181985E-1,1.17681E0,4.4021732E-1,-9.9591964E-1,2.654722E-1,-2.0614248E-2,1.0736092E0,-4.8069614E-1,3.929204E-1],"categories":[],"categories_nodes":[],"categories_segments":[],"categories_sizes":[],"default_left":[1,1,1,1,1,1,1,1,1,1,1,1,1,1,1,1,0,0,0,0,0,1,0,1,1,1,0,1,0,1,1,0,0,0,0,0,0,0,0,0,0,0,0,0,0,0,0],"id":6,"left_children":[1,3,5,7,9,11,13,15,17,19,21,23,25,27,29,31,-1,-1,-1,-1,-1,33,-1,35,37,39,-1,41,-1,43,45,-1,-1,-1,-1,-1,-1,-1,-1,-1,-1,-1,-1,-1,-1,-1,-1],"loss_changes":[2.0323994E1,7.702055E0,1.2723009E1,3.770409E0,5.068186E0,5.2458377E0,5.7095795E0,2.6435118E0,2.1973135E0,1.7524419E0,2.0551777E0,1.775749E0,4.040027E0,8.622547E0,4.984722E0,6.9414854E-1,0E0,0E0,0E0,0E0,0E0,4.2225523E0,0E0,9.5475125E-1,1.169449E0,1.960638E0,0E0,3.5604477E0,0E0,1.2686617E0,2.9038017E0,0E0,0E0,0E0,0E0,0E0,0E0,0E0,0E0,0E0,0E0,0E0,0E0,0E0,0E0,0E0,0E0],"parents":[2147483647,0,0,1,1,2,2,3,3,4,4,5,5,6,6,7,7,8,8,9,9,10,10,11,11,12,12,13,13,14,14,15,15,21,21,23,23,24,24,25,25,27,27,29,29,30,30],"right_children":[2,4,6,8,10,12,14,16,18,20,22,24,26,28,30,32,-1,-1,-1,-1,-1,34,-1,36,38,40,-1,42,-1,44,46,-1,-1,-1,-1,-1,-1,-1,-1,-1,-1,-1,-1,-1,-1,-1,-1],"split_conditions":[1.1977898E-1,1.5E0,5E-1,2.5E0,5E-1,1.5E0,1.5E0,7.5E0,1.8931012E0,6.1207913E-2,3.892924E-2,5E-1,5.2803457E-1,2.5E0,5E-1,2.5E0,3.9114486E-2,-4.786289E-2,1.6013679E-1,7.7379435E-2,-1.0183581E-1,2.7869485E-2,1.8625256E-1,1.0888853E0,1.5E0,1.5060478E-1,-1.0265463E-1,1.5E0,1.3725773E-1,2.5E-1,7.5E0,-2.9228164E-2,-1.8140572E-1,1.7007792E-1,-4.4203475E-2,-4.791515E-3,-1.7325889E-1,-6.6859536E-2,8.427298E-2,1.7652151E-1,6.60326E-2,-1.4938796E-1,3.982083E-2,-3.0921374E-3,1.610414E-1,-7.2104424E-2,5.8938064E-2],"split_indices":[1,6,0,11,11,6,0,3,10,4,4,17,4,16,5,7,0,0,0,0,0,4,0,10,14,12,0,5,0,1,3,0,0,0,0,0,0,0,0,0,0,0,0,0,0,0,0],"split_type":[0,0,0,0,0,0,0,0,0,0,0,0,0,0,0,0,0,0,0,0,0,0,0,0,0,0,0,0,0,0,0,0,0,0,0,0,0,0,0,0,0,0,0,0,0,0,0],"sum_hessian":[1.2417947E2,3.6787422E1,8.7392044E1,9.549393E0,2.723803E1,2.7344252E1,6.004779E1,6.1404195E0,3.4089732E0,3.1630023E0,2.4075027E1,5.8571067E0,2.1487144E1,3.2307644E1,2.7740149E1,3.9809172E0,2.159502E0,1.1981535E0,2.2108197E0,1.1564918E0,2.0065105E0,6.678944E0,1.7396084E1,3.161629E0,2.695478E0,1.986404E1,1.6231047E0,3.0265392E1,2.0422504E0,4.098488E0,2.364166E1,1.3776418E0,2.6032755E0,3.3775306E0,3.3014138E0,1.0806158E0,2.0810132E0,1.1434388E0,1.5520391E0,5.1586413E0,1.4705399E1,2.824515E1,2.0202417E0,1.4392447E0,2.659243E0,1.9779709E1,3.8619516E0],"tree_param":{"num_deleted":"0","num_feature":"18","num_nodes":"47","size_leaf_vector":"0"}},{"base_weights":[-6.946277E-2,-1.593303E-1,9.768621E-1,2.5994357E-1,-3.566671E-1,1.3150403E-1,1.1293153E0,6.091856E-1,-1.3024493E-1,-4.3828434E-1,7.8250235E-1,9.831692E-1,8.699125E-2,-1.0864573E0,3.7289932E-1,1.1253364E0,-4.8654848E-1,-5.3439975E-1,1.2580067E0,3.3778808E-1,1.0575633E0,-9.0634495E-1,7.753353E-1,-1.7664196E-1,-1.2350274E0,7.198056E-1,-5.549365E-1,-1.0944277E0,-3.2513338E-1],"categories":[],"categories_nodes":[],"categories_segments":[],"categories_sizes":[],"default_left":[1,1,1,1,1,0,0,1,1,1,1,1,1,1,1,0,1,0,0,0,0,0,0,0,0,0,0,0,0],"id":7,"left_children":[1,3,5,7,9,-1,-1,11,13,15,17,19,21,23,25,-1,27,-1,-1,-1,-1,-1,-1,-1,-1,-1,-1,-1,-1],"loss_changes":[1.1593698E1,9.43222E0,1.1095333E0,5.08101E0,7.518484E0,0E0,0E0,3.7313428E0,9.141963E0,6.0307627E0,4.1280684E0,1.848917E-1,7.0296226E0,6.626787E-1,4.468933E0,0E0,6.628416E0,0E0,0E0,0E0,0E0,0E0,0E0,0E0,0E0,0E0,0E0,0E0,0E0],"parents":[2147483647,0,0,1,1,2,2,3,3,4,4,7,7,8,8,9,9,10,10,11,11,12,12,13,13,14,14,16,16],"right_children":[2,4,6,8,10,-1,-1,12,14,16,18,20,22,24,26,-1,28,-1,-1,-1,-1,-1,-1,-1,-1,-1,-1,-1,-1],"split_conditions":[2.5E0,5E-1,1.5E0,3.0129423E0,1.5E0,1.9725606E-2,1.693973E-1,1.9972736E-1,1.9058138E-1,2.0578848E-2,1.5E0,8.035715E-2,2.5954878E-1,6.3123405E-2,5E-1,1.6880047E-1,6.0003303E-2,-8.015996E-2,1.8870102E-1,5.0668214E-2,1.586345E-1,-1.3595174E-1,1.163003E-1,-2.6496295E-2,-1.8525413E-1,1.0797084E-1,-8.324048E-2,-1.6416416E-1,-4.877001E-2],"split_indices":[5,0,6,7,9,0,0,4,12,4,3,12,1,4,13,0,4,0,0,0,0,0,0,0,0,0,0,0,0],"split_type":[0,0,0,0,0,0,0,0,0,0,0,0,0,0,0,0,0,0,0,0,0,0,0,0,0,0,0,0,0],"sum_hessian":[1.2064181E2,1.1188028E2,8.761532E0,3.5704037E1,7.617624E1,1.6232338E0,7.138298E0,1.8544416E1,1.715962E1,7.165751E1,4.5187325E0,1.0291276E1,8.253141E0,5.516439E0,1.1643181E1,1.4774109E0,7.01801E1,1.1659082E0,3.3528244E0,1.6363329E0,8.6549425E0,3.2485368E0,5.004605E0,1.0816386E0,4.4348E0,8.637818E0,3.0053623E0,1.3512532E1,5.6667564E1],"tree_param":{"num_deleted":"0","num_feature":"18","num_nodes":"29","size_leaf_vector":"0"}},{"base_weights":[5.7604E-2,5.203765E-1,-9.54759E-2,7.381888E-1,-8.1492275E-1,-1.7445703E-1,9.888221E-1,2.2152397E-1,1.0711447E0,-1.1913393E0,7.595451E-2,4.9636754E-1,-3.133074E-1,-8.0436595E-2,1.4143652E0,8.870025E-1,-2.7496463E-1,2.895095E-1,1.1420593E0,5.1484283E-2,1.0686063E0,-4.2285573E-1,5.899289E-1,1.1095185E0,1.5312992E-1,-5.6706333E-1,6.0854316E-1,5.789857E-1,1.3035883E0,7.142098E-1,-8.841529E-1,2.855077E-1,1.510837E0,-5.7823706E-1,1.1779168E-1,9.8298997E-1,-7.202157E-1],"categories":[],"categories_nodes":[],"categories_segments":[],"categories_sizes":[],"default_left":[1,1,1,1,1,1,1,1,1,0,0,1,1,0,0,1,1,0,1,1,1,1,1,0,0,0,0,0,0,0,0,0,0,0,0,0,0],"id":8,"left_children":[1,3,5,7,9,11,13,15,17,-1,-1,19,21,-1,-1,23,25,-1,27,29,31,33,35,-1,-1,-1,-1,-1,-1,-1,-1,-1,-1,-1,-1,-1,-1],"loss_changes":[8.541721E0,9.312858E0,7.959039E0,4.2828703E0,1.658474E0,8.12861E0,2.9909143E0,4.062665E0,5.405979E-1,0E0,0E0,3.7805593E0,7.327519E0,0E0,0E0,6.7519236E-1,2.2503707E0,0E0,5.2503777E-1,6.538893E0,1.833272E0,5.4762993E0,4.907485E0,0E0,0E0,0E0,0E0,0E0,0E0,0E0,0E0,0E0,0E0,0E0,0E0,0E0,0E0],"parents":[2147483647,0,0,1,1,2,2,3,3,4,4,5,5,6,6,7,7,8,8,11,11,12,12,15,15,16,16,18,18,19,19,20,20,21,21,22,22],"right_children":[2,4,6,8,10,12,14,16,18,-1,-1,20,22,-1,-1,24,26,-1,28,30,32,34,36,-1,-1,-1,-1,-1,-1,-1,-1,-1,-1,-1,-1,-1,-1],"split_conditions":[5E-1,3.9181027E-1,1.5E0,2.7960062E-1,1.5398502E-1,5E-1,1.5E0,1.5178572E-1,4.5667484E-2,-1.787009E-1,1.1393177E-2,1.5E0,2.5E0,-1.206549E-2,2.1215479E-1,3.3741727E0,1.5E0,4.3426428E-2,1.5E0,5E-1,2.7059978E-1,2.5E0,5.8928573E-1,1.6642779E-1,2.2969488E-2,-8.50595E-2,9.128147E-2,8.684786E-2,1.9553825E-1,1.0713147E-1,-1.3262294E-1,4.2826157E-2,2.2662555E-1,-8.673556E-2,1.7668754E-2,1.474485E-1,-1.0803235E-1],"split_indices":[2,1,9,12,12,5,3,12,4,0,0,0,5,0,0,10,8,0,16,0,1,11,12,0,0,0,0,0,0,0,0,0,0,0,0,0,0],"split_type":[0,0,0,0,0,0,0,0,0,0,0,0,0,0,0,0,0,0,0,0,0,0,0,0,0,0,0,0,0,0,0,0,0,0,0,0,0],"sum_hessian":[1.18874344E2,2.8951702E1,8.992264E1,2.5275904E1,3.6757991E0,8.459945E1,5.3231854E0,1.0557936E1,1.4717968E1,2.3469095E0,1.3288894E0,1.406632E1,7.0533134E1,1.7462857E0,3.5769E0,4.1751447E0,6.3827915E0,1.6469926E0,1.3070975E1,8.527017E0,5.5393033E0,6.3378197E1,7.154933E0,2.8109686E0,1.3641759E0,5.0660577E0,1.3167338E0,3.9357522E0,9.135222E0,5.130013E0,3.397004E0,2.593089E0,2.9462142E0,4.9175655E1,1.4202543E1,5.6958194E0,1.4591138E0],"tree_param":{"num_deleted":"0","num_feature":"18","num_nodes":"37","size_leaf_vector":"0"}},{"base_weights":[4.4853404E-2,-4.3351516E-1,2.9594988E-1,3.3631518E-1,-7.112824E-1,-1.0009572E-2,8.966575E-1,-3.7671232E-1,7.297658E-1,-9.08081E-1,1.5274364E-1,7.647597E-1,-1.3555652E-1,1.0058823E0,-4.095838E-1,8.5291064E-1,-1.2008036E0,8.7308717E-1,-4.8249576E-2,-2.7354202E-1,-1.060227E0,9.891075E-1,-7.7536124E-1,-1.0601536E-1,1.2984959E0,-6.379804E-1,1.3745765E-1,1.1020674E0,2.3288488E-1,2.4017848E-1,9.547308E-1,-8.776705E-1,3.7542146E-1,-1.1368929E-1,-1.200631E0,1.312462E-1,1.397648E0,-1.0524031E0,-7.2861046E-2,5.4536384E-1,-6.2682444E-1,1.6945128E0,2.5244647E-1,-8.256885E-1,7.8285444E-1,2.6175612E-1,-9.698884E-1,1.1787314E0,3.3522347E-1,7.6736605E-1,-2.9320517E-1],"categories":[],"categories_nodes":[],"categories_segments":[],"categories_sizes":[],"default_left":[1,1,1,1,1,1,1,1,1,1,1,1,1,1,0,0,0,1,0,1,1,1,1,1,1,1,1,1,1,0,0,0,0,0,0,0,0,0,0,0,0,0,0,0,0,0,0,0,0,0,0],"id":9,"left_children":[1,3,5,7,9,11,13,15,17,19,21,23,25,27,-1,-1,-1,29,-1,31,33,35,37,39,41,43,45,47,49,-1,-1,-1,-1,-1,-1,-1,-1,-1,-1,-1,-1,-1,-1,-1,-1,-1,-1,-1,-1,-1,-1],"loss_changes":[1.4421294E1,9.084518E0,1.4460052E1,3.542334E0,5.362047E0,5.267052E0,4.1991596E0,5.8891606E0,9.169855E-1,2.1393585E0,5.8549275E0,3.647964E0,6.470186E0,1.5861492E0,0E0,0E0,0E0,1.1575174E-1,0E0,2.765906E0,2.514717E0,1.1789174E0,6.371045E-1,1.6291865E0,1.5433016E0,5.062846E0,4.5167246E0,8.8497543E-1,1.3527486E0,0E0,0E0,0E0,0E0,0E0,0E0,0E0,0E0,0E0,0E0,0E0,0E0,0E0,0E0,0E0,0E0,0E0,0E0,0E0,0E0,0E0,0E0],"parents":[2147483647,0,0,1,1,2,2,3,3,4,4,5,5,6,6,7,7,8,8,9,9,10,10,11,11,12,12,13,13,17,17,19,19,20,20,21,21,22,22,23,23,24,24,25,25,26,26,27,27,28,28],"right_children":[2,4,6,8,10,12,14,16,18,20,22,24,26,28,-1,-1,-1,30,-1,32,34,36,38,40,42,44,46,48,50,-1,-1,-1,-1,-1,-1,-1,-1,-1,-1,-1,-1,-1,-1,-1,-1,-1,-1,-1,-1,-1,-1],"split_conditions":[1.5E0,1.2031538E-1,2.5E0,5.4886103E-2,1.5E0,2.5E0,2.5E0,5E-1,2.2785297E-1,5E-1,1.9971035E-1,2.9321155E-1,1.5E0,3.9848503E-1,-6.1437573E-2,1.279366E-1,-1.8012056E-1,6.264444E-2,-7.2374367E-3,2.5892857E-1,1.8383288E-1,1.5E0,1.5E0,2.819641E0,5E-1,2.5E0,4.9119067E-1,2.5E0,5E-1,3.6026772E-2,1.4320962E-1,-1.3165058E-1,5.631322E-2,-1.7053394E-2,-1.8009466E-1,1.968693E-2,2.0964721E-1,-1.5786047E-1,-1.0929157E-2,8.180458E-2,-9.402367E-2,2.5417694E-1,3.7866972E-2,-1.2385327E-1,1.1742817E-1,3.926342E-2,-1.4548327E-1,1.7680973E-1,5.028352E-2,1.1510491E-1,-4.3980777E-2],"split_indices":[3,1,6,4,5,3,2,0,4,5,4,1,14,4,0,0,0,4,0,12,1,14,11,7,8,16,1,5,0,0,0,0,0,0,0,0,0,0,0,0,0,0,0,0,0,0,0,0,0,0,0],"split_type":[0,0,0,0,0,0,0,0,0,0,0,0,0,0,0,0,0,0,0,0,0,0,0,0,0,0,0,0,0,0,0,0,0,0,0,0,0,0,0,0,0,0,0,0,0,0,0,0,0,0,0],"sum_hessian":[1.17992615E2,4.036535E1,7.7627266E1,1.0646858E1,2.971849E1,5.2083054E1,2.5544212E1,3.8010252E0,6.8458333E0,2.4163744E1,5.554746E0,6.55287E0,4.553018E1,2.3785286E1,1.758927E0,1.5111997E0,2.2898254E0,5.6777196E0,1.1681135E0,5.2144213E0,1.8949322E1,2.8872058E0,2.6675403E0,2.7947264E0,3.7581434E0,1.5559487E1,2.9970695E1,2.0774574E1,3.0107124E0,1.0991105E0,4.578609E0,2.517981E0,2.6964402E0,2.6815183E0,1.6267805E1,1.3576474E0,1.5295584E0,1.5558747E0,1.1116655E0,1.220763E0,1.5739633E0,2.2764144E0,1.4817291E0,1.4113772E1,1.4457155E0,2.7632584E1,2.338111E0,1.8398127E1,2.376447E0,1.2659496E0,1.7447627E0],"tree_param":{"num_deleted":"0","num_feature":"18","num_nodes":"51","size_leaf_vector":"0"}},{"base_weights":[1.3616761E-2,5.138155E-1,-1.5754804E-1,-4.0501004E-1,6.2641656E-1,-5.8856004E-1,7.918865E-2,-7.4454784E-1,1.03815414E-1,2.581604E-1,9.466744E-1,-1.2775448E-1,-1.0109034E0,5.838816E-1,-1.6057089E-1,9.467808E-1,-8.031537E-2,1.6170132E-1,1.1317245E0,-1.0154995E0,2.1918184E-1,-1.2064524E0,-5.1220155E-1,-5.687511E-1,8.4950215E-1,7.423062E-1,-3.018427E-1,5.354028E-1,-4.3060932E-1,7.140829E-1,-3.022657E-1,1.2488304E0,2.0124657E-1,-1.0707888E-1,1.0628363E0,-1.2844793E0,-2.2319022E-1,4.6108273E-1,-9.535624E-1,-8.1170976E-1,4.7240246E-2,1.4475884E0,4.3647292E-1,9.686001E-1,5.2980922E-2,3.5328093E-1,-4.649362E-1],"categories":[],"categories_nodes":[],"categories_segments":[],"categories_sizes":[],"default_left":[1,1,1,1,1,1,1,0,0,1,1,1,1,1,1,0,1,1,1,0,1,1,1,1,1,1,1,0,0,0,0,0,0,0,0,0,0,0,0,0,0,0,0,0,0,0,0],"id":10,"left_children":[1,3,5,7,9,11,13,-1,-1,15,17,19,21,23,25,-1,27,29,31,-1,33,35,37,39,41,43,45,-1,-1,-1,-1,-1,-1,-1,-1,-1,-1,-1,-1,-1,-1,-1,-1,-1,-1,-1,-1],"loss_changes":[1.0183083E1,3.3903322E0,9.094768E0,7.540271E-1,2.9870825E0,6.0123806E0,7.126446E0,0E0,0E0,3.3671265E0,1.8913212E0,5.2230873E0,9.736786E-1,6.2799215E0,5.3497553E0,0E0,2.4711747E0,1.2130293E0,9.8969936E-1,0E0,3.5534039E0,5.561762E-1,3.1609392E0,6.586875E-1,3.2683802E0,8.4189963E-1,3.9529557E0,0E0,0E0,0E0,0E0,0E0,0E0,0E0,0E0,0E0,0E0,0E0,0E0,0E0,0E0,0E0,0E0,0E0,0E0,0E0,0E0],"parents":[2147483647,0,0,1,1,2,2,3,3,4,4,5,5,6,6,9,9,10,10,11,11,12,12,13,13,14,14,16,16,17,17,18,18,20,20,21,21,22,22,23,23,24,24,25,25,26,26],"right_children":[2,4,6,8,10,12,14,-1,-1,16,18,20,22,24,26,-1,28,30,32,-1,34,36,38,40,42,44,46,-1,-1,-1,-1,-1,-1,-1,-1,-1,-1,-1,-1,-1,-1,-1,-1,-1,-1,-1,-1],"split_conditions":[1.19938135E-1,5E-1,1.5E0,2.9464287E-1,5.9975788E-2,1.0081818E0,2.0188017E0,-1.11682184E-1,1.5572312E-2,4.411765E-2,1.1607143E-1,1.5E0,2.8572035E-1,7.089905E-2,1.0029739E0,1.4201713E-1,1.5E0,5.4647304E-2,2.5E0,-1.5232493E-1,1.5E0,4.8750964E-1,5E-1,1.7336056E-1,1.5E0,2.4107143E-1,5E-1,8.031042E-2,-6.45914E-2,1.0711244E-1,-4.5339856E-2,1.8732457E-1,3.0186987E-2,-1.6061833E-2,1.5942545E-1,-1.926719E-1,-3.3478536E-2,6.916241E-2,-1.4303437E-1,-1.2175647E-1,7.086037E-3,2.1713828E-1,6.547094E-2,1.4529002E-1,7.9471385E-3,5.2992143E-2,-6.974043E-2],"split_indices":[1,11,3,12,4,15,7,0,0,1,12,6,12,12,10,0,2,12,16,0,5,4,2,4,14,12,2,0,0,0,0,0,0,0,0,0,0,0,0,0,0,0,0,0,0,0,0],"split_type":[0,0,0,0,0,0,0,0,0,0,0,0,0,0,0,0,0,0,0,0,0,0,0,0,0,0,0,0,0,0,0,0,0,0,0,0,0,0,0,0,0,0,0,0,0,0,0],"sum_hessian":[1.1699293E2,2.9317085E1,8.767584E1,2.9170525E0,2.6400032E1,3.0556805E1,5.711904E1,1.471714E0,1.4453384E0,1.3119902E1,1.328013E1,1.5235891E1,1.5320913E1,1.79336E1,3.918544E1,3.7313585E0,9.388543E0,2.8909004E0,1.038923E1,3.7396863E0,1.1496205E1,9.986041E0,5.3348722E0,3.1449966E0,1.4788603E1,4.7261114E0,3.445933E1,3.2128386E0,6.1757045E0,1.0736145E0,1.8172859E0,8.923959E0,1.4652709E0,8.919792E0,2.5764127E0,8.968037E0,1.0180047E0,1.650507E0,3.6843653E0,2.0275593E0,1.1174372E0,5.0177903E0,9.770812E0,3.2530477E0,1.4730637E0,6.636265E0,2.7823065E1],"tree_param":{"num_deleted":"0","num_feature":"18","num_nodes":"47","size_leaf_vector":"0"}},{"base_weights":[1.10645264E-1,5.627508E-1,-1.14266686E-1,2.6527342E-1,9.64316E-1,-4.0384722E-1,3.427526E-1,7.958383E-1,-4.2783074E-2,1.0924445E0,-7.531307E-2,-6.448785E-1,1.2602061E-1,1.6998269E-2,7.0577663E-1,1.8717852E-1,1.1178942E0,-5.7358533E-1,4.1542637E-1,1.2151955E0,3.775418E-1,2.6024845E-1,-7.521943E-1,-3.0127504E-1,4.759637E-1,5.477953E-1,-5.322904E-1,2.164417E-1,1.1429815E0,-6.666721E-1,8.793839E-1,-8.0878156E-1,3.4574372E-1,-3.303929E-1,1.0029268E0,3.9495265E-1,1.2715439E0,-9.174717E-2,6.049014E-1,-7.7823913E-1,8.812108E-1,1.1200622E-1,-8.729712E-1,-6.729525E-1,8.976124E-1,-7.736223E-2,7.963845E-1,-1.922594E-1,8.150139E-1,5.618177E-1,-7.4947476E-1,-3.4319937E-1,9.9718225E-1,3.1568837E-1,1.3359424E0],"categories":[],"categories_nodes":[],"categories_segments":[],"categories_sizes":[],"default_left":[1,1,1,1,1,1,1,1,1,1,0,1,1,1,1,1,0,1,1,1,1,1,1,1,1,1,1,1,1,0,0,0,0,0,0,0,0,0,0,0,0,0,0,0,0,0,0,0,0,0,0,0,0,0,0],"id":11,"left_children":[1,3,5,7,9,11,13,15,17,19,-1,21,23,25,27,29,-1,31,33,35,37,39,41,43,45,47,49,51,53,-1,-1,-1,-1,-1,-1,-1,-1,-1,-1,-1,-1,-1,-1,-1,-1,-1,-1,-1,-1,-1,-1,-1,-1,-1,-1],"loss_changes":[1.1748964E1,4.324581E0,1.0404072E1,3.8596072E0,2.2052603E0,6.2040534E0,3.6098363E0,1.4861279E0,4.0706925E0,7.920189E-1,0E0,3.412385E0,2.5098324E0,5.296733E0,2.8462124E0,3.0650156E0,0E0,1.9489336E0,4.290992E0,3.9211273E-2,4.3314546E-1,3.4284275E0,3.214653E0,4.052019E0,1.6729035E0,1.9806292E0,2.5462725E0,3.862568E0,7.600794E-1,0E0,0E0,0E0,0E0,0E0,0E0,0E0,0E0,0E0,0E0,0E0,0E0,0E0,0E0,0E0,0E0,0E0,0E0,0E0,0E0,0E0,0E0,0E0,0E0,0E0,0E0],"parents":[2147483647,0,0,1,1,2,2,3,3,4,4,5,5,6,6,7,7,8,8,9,9,11,11,12,12,13,13,14,14,15,15,17,17,18,18,19,19,20,20,21,21,22,22,23,23,24,24,25,25,26,26,27,27,28,28],"right_children":[2,4,6,8,10,12,14,16,18,20,-1,22,24,26,28,30,-1,32,34,36,38,40,42,44,46,48,50,52,54,-1,-1,-1,-1,-1,-1,-1,-1,-1,-1,-1,-1,-1,-1,-1,-1,-1,-1,-1,-1,-1,-1,-1,-1,-1,-1],"split_conditions":[1.6212907E-1,2.951492E-1,5E-1,5E-1,2.1563822E-1,2.5E0,3.8741727E0,1.5E0,5.5E0,5E-1,-1.12969605E-2,1.0029739E0,1.5E0,4E0,1.5E0,6.703999E-2,1.6768414E-1,2.5E0,2.9483087E0,1.5E0,2.5E0,1.5E0,5E-1,1.5E0,2.9041314E0,1.6660401E-1,7.509585E-2,2.5E0,1.5E0,-1.0000082E-1,1.319076E-1,-1.2131724E-1,5.1861558E-2,-4.9558938E-2,1.5043902E-1,5.92429E-2,1.9073159E-1,-1.3762076E-2,9.073521E-2,-1.16735876E-1,1.3218163E-1,1.6800933E-2,-1.3094568E-1,-1.0094287E-1,1.3464187E-1,-1.1604335E-2,1.19457684E-1,-2.8838912E-2,1.22252084E-1,8.427266E-2,-1.1242122E-1,-5.147991E-2,1.4957735E-1,4.7353256E-2,2.0039137E-1],"split_indices":[1,12,17,0,4,6,10,14,3,13,0,10,3,3,14,4,0,8,7,7,3,16,5,5,10,12,4,16,3,0,0,0,0,0,0,0,0,0,0,0,0,0,0,0,0,0,0,0,0,0,0,0,0,0,0],"split_type":[0,0,0,0,0,0,0,0,0,0,0,0,0,0,0,0,0,0,0,0,0,0,0,0,0,0,0,0,0,0,0,0,0,0,0,0,0,0,0,0,0,0,0,0,0,0,0,0,0,0,0,0,0,0,0],"sum_hessian":[1.1391155E2,3.734354E1,7.656801E1,2.2405935E1,1.4937603E1,4.6941116E1,2.9626894E1,7.6488776E0,1.4757058E1,1.3253394E1,1.6842096E0,3.21152E1,1.4825919E1,1.6166735E1,1.3460159E1,3.1938868E0,4.454991E0,6.720292E0,8.036765E0,1.0713967E1,2.539427E0,3.2530591E0,2.8862139E1,6.7378216E0,8.088098E0,8.223142E0,7.9435925E0,7.0568953E0,6.4032645E0,1.4464928E0,1.7473938E0,5.447007E0,1.2732853E0,3.7340713E0,4.3026943E0,1.2035427E0,9.510425E0,1.0234362E0,1.5159907E0,1.1225108E0,2.1305485E0,3.5479496E0,2.531419E1,5.4781723E0,1.2596495E0,3.2442505E0,4.8438473E0,2.2559276E0,5.9672136E0,1.0528473E0,6.890745E0,4.4369044E0,2.6199906E0,1.7096025E0,4.693662E0],"tree_param":{"num_deleted":"0","num_feature":"18","num_nodes":"55","size_leaf_vector":"0"}},{"base_weights":[-2.9129997E-2,1.3784546E-1,-4.5133096E-1,-8.629961E-2,5.312977E-1,2.471184E-1,-6.0806316E-1,-5.4112583E-1,1.4584963E-1,8.295606E-1,1.7417052E-3,-1.1102708E-1,1.0089903E0,-1.15538314E-1,-8.7615204E-1,4.8477843E-2,-8.66704E-1,4.2140225E-1,-2.09897E-1,2.3576847E-1,1.1087968E0,-5.682121E-1,7.679007E-1,5.554142E-1,-7.2252727E-1,-6.324773E-1,5.750096E-1,-1.1116431E0,-5.9652585E-1,6.239099E-1,-5.09631E-1,-1.2897543E0,-2.3929991E-1,8.25642E-2,9.781437E-1,-5.5186737E-1,6.7552644E-1,8.7861884E-1,-1.1834104E-1,5.95573E-1,1.2271745E0,4.4491112E-1,-8.4435666E-1,1.1485404E0,-2.452602E-2,7.3868656E-1,1.06256805E-1,2.0250817E-1,-9.427206E-1,1.0465238E0,-2.846506E-1,-8.678681E-2,-1.0596055E0],"categories":[],"categories_nodes":[],"categories_segments":[],"categories_sizes":[],"default_left":[1,1,1,1,1,1,1,1,1,1,1,1,0,1,1,1,1,1,1,1,1,1,1,1,0,1,1,0,1,0,0,0,0,0,0,0,0,0,0,0,0,0,0,0,0,0,0,0,0,0,0,0,0],"id":12,"left_children":[1,3,5,7,9,11,13,15,17,19,21,23,-1,25,27,29,31,33,35,37,39,41,43,45,-1,47,49,-1,51,-1,-1,-1,-1,-1,-1,-1,-1,-1,-1,-1,-1,-1,-1,-1,-1,-1,-1,-1,-1,-1,-1,-1,-1],"loss_changes":[7.939595E0,7.17504E0,3.64253E0,5.607495E0,4.654602E0,1.9013867E0,3.3772345E0,3.47935E0,3.563873E0,2.864954E0,5.511903E0,2.5863423E0,0E0,4.089455E0,4.501772E-1,2.667924E0,2.767375E0,3.7508514E0,5.260579E0,1.7659494E0,3.1863213E-2,2.4011207E0,1.651978E0,1.7924517E-1,0E0,1.8605068E0,2.321392E0,0E0,2.2418952E0,0E0,0E0,0E0,0E0,0E0,0E0,0E0,0E0,0E0,0E0,0E0,0E0,0E0,0E0,0E0,0E0,0E0,0E0,0E0,0E0,0E0,0E0,0E0,0E0],"parents":[2147483647,0,0,1,1,2,2,3,3,4,4,5,5,6,6,7,7,8,8,9,9,10,10,11,11,13,13,14,14,15,15,16,16,17,17,18,18,19,19,20,20,21,21,22,22,23,23,25,25,26,26,28,28],"right_children":[2,4,6,8,10,12,14,16,18,20,22,24,-1,26,28,30,32,34,36,38,40,42,44,46,-1,48,50,-1,52,-1,-1,-1,-1,-1,-1,-1,-1,-1,-1,-1,-1,-1,-1,-1,-1,-1,-1,-1,-1,-1,-1,-1,-1],"split_conditions":[3.3948123E-1,5E-1,5E-1,1.5E0,1.6014636E-1,1.5E0,2.027323E0,1.5E0,1.6212907E-1,1.8818173E-1,1.5E0,5E-1,1.5134855E-1,2.0535713E-1,1.5E0,1.2941128E-1,6.578079E-2,2.5E0,1.5914115E-1,5E-1,3.0001983E-1,5E-1,3.8392857E-1,4.9747938E-1,-1.08379096E-1,5E-1,4.2555296E-1,-1.6674647E-1,1.0260339E0,9.358649E-2,-7.644465E-2,-1.9346315E-1,-3.5894986E-2,1.238463E-2,1.4672156E-1,-8.278011E-2,1.0132897E-1,1.3179283E-1,-1.7751157E-2,8.9335956E-2,1.8407619E-1,6.673667E-2,-1.266535E-1,1.7228106E-1,-3.6789032E-3,1.10802986E-1,1.5938522E-2,3.0376226E-2,-1.414081E-1,1.5697858E-1,-4.269759E-2,-1.3018021E-2,-1.5894082E-1],"split_indices":[1,17,5,3,4,0,7,2,1,12,11,0,0,12,14,1,4,11,4,0,12,2,12,1,0,0,4,0,15,0,0,0,0,0,0,0,0,0,0,0,0,0,0,0,0,0,0,0,0,0,0,0,0],"split_type":[0,0,0,0,0,0,0,0,0,0,0,0,0,0,0,0,0,0,0,0,0,0,0,0,0,0,0,0,0,0,0,0,0,0,0,0,0,0,0,0,0,0,0,0,0,0,0,0,0,0,0,0,0],"sum_hessian":[1.1074035E2,7.983863E1,3.0901718E1,5.136007E1,2.8478561E1,5.5577774E0,2.534394E1,1.6906317E1,3.445375E1,1.7855341E1,1.0623221E1,4.361682E0,1.1960957E0,9.437189E0,1.5906753E1,6.3172445E0,1.0589071E1,1.9311207E1,1.5142545E1,6.3008995E0,1.15544405E1,6.2397604E0,4.383461E0,2.1309702E0,2.2307117E0,5.445112E0,3.9920764E0,7.0196204E0,8.887132E0,3.052302E0,3.264943E0,5.6939893E0,4.8950815E0,1.2718753E1,6.592454E0,1.1195364E1,3.9471812E0,1.7119035E0,4.588996E0,3.295968E0,8.258472E0,1.2055755E0,5.034185E0,2.6575289E0,1.7259321E0,1.0556301E0,1.07534E0,1.5691581E0,3.8759542E0,2.4376712E0,1.5544052E0,4.795669E0,4.091463E0],"tree_param":{"num_deleted":"0","num_feature":"18","num_nodes":"53","size_leaf_vector":"0"}},{"base_weights":[-3.4222086E-3,-3.629814E-1,1.8809777E-1,-1.12856045E-1,-7.332393E-1,-2.8986387E-2,6.012254E-1,2.5086954E-1,-4.678833E-1,-9.186516E-1,5.677041E-1,-2.1981043E-1,9.0706205E-1,-5.0603595E-2,8.544139E-1,4.008467E-1,-7.051878E-1,-6.4768124E-1,1.7954202E-1,-1.0069913E0,5.915723E-2,5.542727E-2,-5.972822E-1,-3.2288843E-1,1.1483785E0,-4.2780668E-1,9.587553E-1,9.986811E-1,-2.667528E-1,-4.3065387E-1,6.184684E-1,-7.835146E-1,1.4719419E-1,7.898725E-1,-4.363924E-1,-2.6802089E-2,-1.0974215E0,-1.6786824E-1,9.8363405E-1,8.336745E-1,-8.162456E-1,3.748503E-1,-6.834074E-1,4.745331E-1,1.3611411E0],"categories":[],"categories_nodes":[],"categories_segments":[],"categories_sizes":[],"default_left":[1,1,1,1,1,1,1,1,1,1,0,1,1,1,1,1,0,1,1,1,0,1,1,0,0,1,0,1,0,0,0,0,0,0,0,0,0,0,0,0,0,0,0,0,0],"id":13,"left_children":[1,3,5,7,9,11,13,15,17,19,-1,21,23,25,27,29,-1,31,33,35,-1,37,39,-1,-1,41,-1,43,-1,-1,-1,-1,-1,-1,-1,-1,-1,-1,-1,-1,-1,-1,-1,-1,-1],"loss_changes":[7.6032405E0,3.470614E0,6.479233E0,3.2270422E0,4.2090454E0,8.80645E0,4.1468363E0,2.0815802E0,1.5754724E0,1.2483654E0,0E0,4.275263E0,2.850597E0,3.4180782E0,3.1721344E0,2.3440843E0,0E0,1.1980381E0,1.6632578E0,1.0943165E0,0E0,5.249007E0,6.1019554E0,0E0,0E0,1.5779301E0,0E0,2.4180088E0,0E0,0E0,0E0,0E0,0E0,0E0,0E0,0E0,0E0,0E0,0E0,0E0,0E0,0E0,0E0,0E0,0E0],"parents":[2147483647,0,0,1,1,2,2,3,3,4,4,5,5,6,6,7,7,8,8,9,9,11,11,12,12,13,13,14,14,15,15,17,17,18,18,19,19,21,21,22,22,25,25,27,27],"right_children":[2,4,6,8,10,12,14,16,18,20,-1,22,24,26,28,30,-1,32,34,36,-1,38,40,-1,-1,42,-1,44,-1,-1,-1,-1,-1,-1,-1,-1,-1,-1,-1,-1,-1,-1,-1,-1,-1],"split_conditions":[1.5E0,1.0081818E0,1.9720933E0,3.0777154E0,2.5E0,1.5E0,1.8826434E-1,5.592384E-1,4.9499995E-1,5E-1,8.515561E-2,2.3218171E-1,5.0319135E-2,7.5E0,2.5E0,1.0294118E-1,-1.0577817E-1,2.5E0,2.8942448E-1,1.0366573E-1,8.873585E-3,2.5E0,9.089853E-2,-4.8433267E-2,1.7225678E-1,7.8902E-2,1.438133E-1,2.364649E-1,-4.0012922E-2,-6.459808E-2,9.277026E-2,-1.17527194E-1,2.2079129E-2,1.1848088E-1,-6.5458864E-2,-4.0203137E-3,-1.6461323E-1,-2.5180237E-2,1.4754511E-1,1.2505119E-1,-1.22436844E-1,5.6227546E-2,-1.02511115E-1,7.117997E-2,2.0417117E-1],"split_indices":[14,15,15,7,16,5,12,1,12,9,0,12,4,3,15,1,0,16,4,1,0,6,1,0,0,4,0,1,0,0,0,0,0,0,0,0,0,0,0,0,0,0,0,0,0],"split_type":[0,0,0,0,0,0,0,0,0,0,0,0,0,0,0,0,0,0,0,0,0,0,0,0,0,0,0,0,0,0,0,0,0,0,0,0,0,0,0,0,0,0,0,0,0],"sum_hessian":[1.08420006E2,3.7368744E1,7.105126E1,2.3081194E1,1.4287549E1,4.7186325E1,2.3864935E1,1.1545847E1,1.1535347E1,1.276248E1,1.5250695E0,3.9831413E1,7.3549113E0,6.9003234E0,1.6964611E1,1.0482225E1,1.0636218E0,9.027817E0,2.5075307E0,1.1677626E1,1.0848547E0,2.3528505E1,1.6302908E1,1.1509056E0,6.2040057E0,5.442566E0,1.4577575E0,1.5127336E1,1.8372761E0,1.9712932E0,8.510932E0,7.722448E0,1.3053683E0,1.1176511E0,1.3898796E0,1.0958539E0,1.0581771E1,1.9626236E1,3.9022684E0,1.7910143E0,1.4511894E1,1.2018567E0,4.2407093E0,7.1283436E0,7.998992E0],"tree_param":{"num_deleted":"0","num_feature":"18","num_nodes":"45","size_leaf_vector":"0"}},{"base_weights":[3.758463E-2,-1.5867965E-1,4.093242E-1,-5.8975375E-1,3.880712E-2,8.344315E-1,-4.7589887E-2,-7.144942E-1,7.211107E-1,-3.8304564E-1,2.3837304E-1,1.0941666E0,2.5732806E-1,-1.1122922E0,1.5067685E-1,2.58877E-1,-8.7078494E-1,-6.4301574E-1,4.4881615E-1,3.3487353E-2,6.134997E-1,4.367807E-1,1.1746103E0,-3.614779E-1,7.8178406E-1,-5.009977E-1,4.2321408E-1,6.548356E-1,-2.8975436E-1,1.5010464E-1,-9.487799E-1,-1.5886669E-1,-1.0861331E0,7.3390925E-1,-1.8289027E-1,1.875828E-1,-1.0736717E0,7.442097E-1,-2.4687299E-1,3.4405708E-1,1.2436408E0,2.7368397E-1,-1.1299616E0,9.9229777E-1,8.670041E-2,6.4726293E-1,-9.97338E-1,-1.8480174E-1,9.274063E-1],"categories":[],"categories_nodes":[],"categories_segments":[],"categories_sizes":[],"default_left":[1,1,1,1,1,1,1,1,0,1,1,1,1,0,1,1,1,1,1,1,1,0,1,1,1,1,1,0,0,0,0,0,0,0,0,0,0,0,0,0,0,0,0,0,0,0,0,0,0],"id":14,"left_children":[1,3,5,7,9,11,13,15,-1,17,19,21,23,-1,25,27,29,31,33,35,37,-1,39,41,43,45,47,-1,-1,-1,-1,-1,-1,-1,-1,-1,-1,-1,-1,-1,-1,-1,-1,-1,-1,-1,-1,-1,-1],"loss_changes":[7.869492E0,6.0442142E0,7.273411E0,4.159101E0,4.2540007E0,2.6183205E0,4.156304E0,3.3973541E0,0E0,3.805579E0,2.6066742E0,1.7622757E-1,2.655644E0,0E0,3.1975327E0,9.838468E-1,1.5911589E0,2.5738463E0,9.3766224E-1,4.153648E0,1.5351596E0,0E0,2.0399189E-1,2.28032E0,5.3935266E-1,3.73163E0,3.9711154E0,0E0,0E0,0E0,0E0,0E0,0E0,0E0,0E0,0E0,0E0,0E0,0E0,0E0,0E0,0E0,0E0,0E0,0E0,0E0,0E0,0E0,0E0],"parents":[2147483647,0,0,1,1,2,2,3,3,4,4,5,5,6,6,7,7,9,9,10,10,11,11,12,12,14,14,15,15,16,16,17,17,18,18,19,19,20,20,22,22,23,23,24,24,25,25,26,26],"right_children":[2,4,6,8,10,12,14,16,-1,18,20,22,24,-1,26,28,30,32,34,36,38,-1,40,42,44,46,48,-1,-1,-1,-1,-1,-1,-1,-1,-1,-1,-1,-1,-1,-1,-1,-1,-1,-1,-1,-1,-1,-1],"split_conditions":[5E-1,1.5E0,1.6765709E-1,2.5E0,1.5E0,1.5E0,1.8382353E-1,9.506276E-2,1.0816661E-1,2.5E0,1.8417531E0,5E-1,2.7678573E-1,-1.6684383E-1,1.9205981E-1,2.1496898E-1,5.391977E-2,1.0148869E0,1.8382353E-1,1.0622406E0,5E-1,6.5517105E-2,1.5E0,1.5E0,5E-1,4.2632532E-1,1.5E0,9.822534E-2,-4.3463156E-2,2.2515697E-2,-1.4231698E-1,-2.3830004E-2,-1.6291997E-1,1.1008639E-1,-2.743354E-2,2.8137421E-2,-1.6105077E-1,1.1163146E-1,-3.703095E-2,5.1608566E-2,1.8654612E-1,4.1052595E-2,-1.6949424E-1,1.4884467E-1,1.3005062E-2,9.708945E-2,-1.496007E-1,-2.7720263E-2,1.3911095E-1],"split_indices":[17,6,4,5,14,0,1,1,0,11,15,3,12,0,12,12,12,15,1,15,9,0,16,15,13,1,14,0,0,0,0,0,0,0,0,0,0,0,0,0,0,0,0,0,0,0,0,0,0],"split_type":[0,0,0,0,0,0,0,0,0,0,0,0,0,0,0,0,0,0,0,0,0,0,0,0,0,0,0,0,0,0,0,0,0,0,0,0,0,0,0,0,0,0,0,0,0,0,0,0,0],"sum_hessian":[1.059713E2,6.972978E1,3.6241516E1,2.1284245E1,4.8445538E1,1.83462E1,1.7895315E1,1.985026E1,1.4339855E0,1.5262815E1,3.3182724E1,1.2034093E1,6.3121085E0,2.085578E0,1.5809737E1,2.6555076E0,1.7194752E1,1.1801634E1,3.4611824E0,2.2165628E1,1.1017096E1,2.013053E0,1.002104E1,3.0381498E0,3.2739587E0,4.414877E0,1.139486E1,1.4299226E0,1.225585E0,1.1548017E0,1.603995E1,6.288908E0,5.512726E0,2.273396E0,1.1877865E0,2.018661E1,1.9790188E0,9.681302E0,1.3357934E0,1.2281741E0,8.792866E0,2.0158708E0,1.022279E0,2.1847026E0,1.0892559E0,1.2406405E0,3.1742365E0,5.4527483E0,5.942112E0],"tree_param":{"num_deleted":"0","num_feature":"18","num_nodes":"49","size_leaf_vector":"0"}},{"base_weights":[1.8183496E-2,3.5409927E-1,-1.7341524E-1,6.21946E-1,1.2042409E-1,-3.3107382E-1,3.6747262E-1,-2.903374E-1,7.654876E-1,-6.962473E-2,6.8917793E-1,-3.983722E-1,6.309408E-1,9.995718E-1,-4.1342203E-2,3.239361E-1,-7.4471617E-1,1.0203263E0,8.682278E-3,-5.029878E-1,2.1484816E-1,1.2593914E0,-2.9283798E-1,-5.088075E-1,9.735268E-2,1.4022212E-1,9.362145E-1,1.1727537E0,4.3214837E-1,-3.5534796E-1,8.8543105E-1,1.2573746E0,4.3574774E-1,5.544595E-1,-7.096457E-1,-9.020387E-1,3.4824318E-1,-4.4656804E-1,6.6058385E-1,-6.139932E-1,4.0495936E-2,4.260718E-1,-8.9693576E-1,2.0992847E-2,6.3631004E-1,-6.127684E-1,7.0519316E-1],"categories":[],"categories_nodes":[],"categories_segments":[],"categories_sizes":[],"default_left":[1,1,1,1,1,1,1,1,1,1,1,1,1,1,1,0,0,1,1,1,1,0,0,1,1,0,0,0,1,1,0,0,0,0,0,0,0,0,0,0,0,0,0,0,0,0,0],"id":15,"left_children":[1,3,5,7,9,11,13,15,17,19,21,23,25,27,29,-1,-1,31,33,35,37,-1,-1,39,41,-1,-1,-1,43,45,-1,-1,-1,-1,-1,-1,-1,-1,-1,-1,-1,-1,-1,-1,-1,-1,-1],"loss_changes":[6.8587093E0,2.3465595E0,5.9139156E0,2.5513296E0,2.4154155E0,3.6904383E0,4.1252737E0,1.1185057E0,3.0080786E0,2.2438748E0,3.4918873E0,2.8010316E0,4.4697917E-1,1.0704422E-1,3.3869553E0,0E0,0E0,1.0725479E0,2.3337538E0,2.74797E0,3.5851061E0,0E0,0E0,2.4090319E0,3.6493127E0,0E0,0E0,0E0,2.4218082E-1,2.779745E0,0E0,0E0,0E0,0E0,0E0,0E0,0E0,0E0,0E0,0E0,0E0,0E0,0E0,0E0,0E0,0E0,0E0],"parents":[2147483647,0,0,1,1,2,2,3,3,4,4,5,5,6,6,7,7,8,8,9,9,10,10,11,11,12,12,13,13,14,14,17,17,18,18,19,19,20,20,23,23,24,24,28,28,29,29],"right_children":[2,4,6,8,10,12,14,16,18,20,22,24,26,28,30,-1,-1,32,34,36,38,-1,-1,40,42,-1,-1,-1,44,46,-1,-1,-1,-1,-1,-1,-1,-1,-1,-1,-1,-1,-1,-1,-1,-1,-1],"split_conditions":[1.5E0,2.0664646E-1,2.5E0,5E-1,1.5E0,2.5E0,2.1060982E0,5E-1,5E-1,1.5E0,3.3035713E-1,1.5E0,2.3738945E-1,2.0153308E0,2.5E0,4.8590418E-2,-1.1170743E-1,2.5E0,2.5E0,5E-1,2.819641E0,1.8890873E-1,-4.39257E-2,2.5E0,1.3210444E0,2.1033319E-2,1.4043218E-1,1.7591307E-1,3.5E0,3.660714E-1,1.3281466E-1,1.886062E-1,6.536216E-2,8.316893E-2,-1.06446855E-1,-1.353058E-1,5.223648E-2,-6.698521E-2,9.908758E-2,-9.209899E-2,6.074391E-3,6.3910775E-2,-1.3454036E-1,3.1489271E-3,9.544651E-2,-9.1915265E-2,1.0577898E-1],"split_indices":[2,1,11,11,5,0,7,0,13,3,12,5,1,10,8,0,0,11,6,8,7,0,0,16,15,0,0,0,10,12,0,0,0,0,0,0,0,0,0,0,0,0,0,0,0,0,0],"split_type":[0,0,0,0,0,0,0,0,0,0,0,0,0,0,0,0,0,0,0,0,0,0,0,0,0,0,0,0,0,0,0,0,0,0,0,0,0,0,0,0,0,0,0,0,0,0,0],"sum_hessian":[1.04612076E2,3.768814E1,6.6923935E1,1.6785933E1,2.090221E1,5.211988E1,1.4804053E1,2.1430483E0,1.4642883E1,1.6324852E1,4.577358E0,4.9259777E1,2.860103E0,5.246696E0,9.557358E0,1.0332625E0,1.1097859E0,1.0693773E1,3.9491105E0,6.1650057E0,1.0159846E1,2.7171645E0,1.8601933E0,4.026364E1,8.996138E0,1.656561E0,1.2035419E0,3.2024722E0,2.0442238E0,7.5992007E0,1.958157E0,6.789644E0,3.9041295E0,2.3737147E0,1.5753958E0,4.1566916E0,2.008314E0,4.089569E0,6.0702777E0,3.369386E1,6.569781E0,7.190414E0,1.8057234E0,1.0441875E0,1.0000361E0,6.454693E0,1.1445076E0],"tree_param":{"num_deleted":"0","num_feature":"18","num_nodes":"47","size_leaf_vector":"0"}},{"base_weights":[3.5818417E-2,-3.145743E-1,2.2734979E-1,5.671879E-1,-4.559539E-1,8.400844E-2,7.920846E-1,-1.0072971E-1,8.175599E-1,7.4598926E-1,-5.267771E-1,4.6817285E-1,-1.16884924E-1,1.0517151E0,-4.7320224E-2,9.8335516E-1,3.0753154E-1,-6.741382E-1,4.0806856E-2,2.5550574E-2,7.792976E-1,9.184321E-2,-5.531152E-1,1.2301426E0,2.2209797E-2,-6.369177E-1,4.4688344E-1,-1.208687E0,-4.192908E-1,6.8412024E-1,-9.4189453E-1,2.5972965E-1,-8.0005676E-1,2.3500894E-1,9.4101274E-1,-2.6171336E-1,4.8879415E-1,-9.020639E-1,-2.819362E-2],"categories":[],"categories_nodes":[],"categories_segments":[],"categories_sizes":[],"default_left":[1,1,1,1,1,1,1,0,1,0,1,1,1,1,1,0,0,1,1,1,1,1,1,0,0,0,0,0,0,0,0,0,0,0,0,0,0,0,0],"id":16,"left_children":[1,3,5,7,9,11,13,-1,15,-1,17,19,21,23,25,-1,-1,27,29,31,33,35,37,-1,-1,-1,-1,-1,-1,-1,-1,-1,-1,-1,-1,-1,-1,-1,-1],"loss_changes":[6.7170353E0,4.673793E0,5.1632705E0,9.7528374E-1,3.0384378E0,4.117705E0,2.8741999E0,0E0,3.527522E-2,0E0,2.53119E0,2.497014E0,3.2712471E0,1.7988386E0,1.4555559E0,0E0,0E0,2.7383442E0,5.1409707E0,1.8662817E0,7.205615E-1,3.6056535E0,2.0972955E0,0E0,0E0,0E0,0E0,0E0,0E0,0E0,0E0,0E0,0E0,0E0,0E0,0E0,0E0,0E0,0E0],"parents":[2147483647,0,0,1,1,2,2,3,3,4,4,5,5,6,6,8,8,10,10,11,11,12,12,13,13,14,14,17,17,18,18,19,19,20,20,21,21,22,22],"right_children":[2,4,6,8,10,12,14,-1,16,-1,18,20,22,24,26,-1,-1,28,30,32,34,36,38,-1,-1,-1,-1,-1,-1,-1,-1,-1,-1,-1,-1,-1,-1,-1,-1],"split_conditions":[1.5E0,1.0096823E0,4.6213648E-1,5E-1,5.147059E-2,1.6261369E-1,2.6774514E-1,-1.5109457E-2,5E-1,1.1189839E-1,2.5E0,1.1626041E-1,1.075434E0,2.5E0,2.2058824E-1,1.4750329E-1,4.6129733E-2,8.610674E-2,9.1394305E-2,9.214206E-2,6.5E0,1.7803773E-1,2.2321428E-1,1.8452139E-1,3.3314696E-3,-9.553766E-2,6.7032516E-2,-1.8130305E-1,-6.289362E-2,1.0261804E-1,-1.4128418E-1,3.895945E-2,-1.2000852E-1,3.525134E-2,1.4115192E-1,-3.9257005E-2,7.331912E-2,-1.3530959E-1,-4.229043E-3],"split_indices":[3,7,12,5,1,1,4,0,17,0,11,1,15,5,1,0,0,4,4,1,3,4,12,0,0,0,0,0,0,0,0,0,0,0,0,0,0,0,0],"split_type":[0,0,0,0,0,0,0,0,0,0,0,0,0,0,0,0,0,0,0,0,0,0,0,0,0,0,0,0,0,0,0,0,0,0,0,0,0,0,0],"sum_hessian":[9.802247E1,3.4416878E1,6.360559E1,4.3396096E0,3.0077269E1,5.1645622E1,1.19599695E1,1.3461535E0,2.993456E0,1.1431811E0,2.8934086E1,1.7276897E1,3.4368725E1,8.941427E0,3.018542E0,1.5587211E0,1.4347348E0,2.2821291E1,6.112795E0,7.578068E0,9.69883E0,2.3779928E1,1.0588795E1,7.454562E0,1.4868648E0,1.2447491E0,1.7737931E0,6.159274E0,1.6662018E1,3.877968E0,2.234827E0,6.4375105E0,1.1405574E0,2.7835145E0,6.9153156E0,1.2757638E1,1.1022291E1,5.928963E0,4.659832E0],"tree_param":{"num_deleted":"0","num_feature":"18","num_nodes":"39","size_leaf_vector":"0"}},{"base_weights":[-3.7510376E-2,-1.08968645E-1,6.5524065E-1,-1.7196284E-1,7.397317E-1,9.149188E-1,-6.17421E-1,4.4379464E-1,-2.6082784E-1,1.1878957E0,1.9987415E-1,2.8370774E-1,1.1241227E0,-1.5618739E-1,1.0707334E0,-2.2553891E-2,-4.8853964E-1,6.964783E-1,-6.390934E-1,-1.5138607E-1,5.49472E-1,3.2396814E-1,-5.862957E-1,1.5003921E0,-2.771599E-1,-4.1526222E-1,2.3004465E-1,-1.0063417E0,-2.620868E-1],"categories":[],"categories_nodes":[],"categories_segments":[],"categories_sizes":[],"default_left":[1,1,1,1,1,1,0,1,1,0,1,1,0,1,1,1,1,0,0,0,0,0,0,0,0,0,0,0,0],"id":17,"left_children":[1,3,5,7,9,11,-1,13,15,-1,17,19,-1,21,23,25,27,-1,-1,-1,-1,-1,-1,-1,-1,-1,-1,-1,-1],"loss_changes":[4.764103E0,4.7672806E0,3.541434E0,4.5811005E0,1.2591054E0,7.2207975E-1,0E0,4.1777344E0,3.8924341E0,0E0,2.114986E0,4.647646E-1,0E0,1.4953021E0,3.509078E0,3.6869178E0,4.0441E0,0E0,0E0,0E0,0E0,0E0,0E0,0E0,0E0,0E0,0E0,0E0,0E0],"parents":[2147483647,0,0,1,1,2,2,3,3,4,4,5,5,7,7,8,8,10,10,11,11,13,13,14,14,15,15,16,16],"right_children":[2,4,6,8,10,12,-1,14,16,-1,18,20,-1,22,24,26,28,-1,-1,-1,-1,-1,-1,-1,-1,-1,-1,-1,-1],"split_conditions":[2.5E0,6.185956E-1,5.7142854E-1,1.0029739E0,1.5E0,1.5E0,-9.2613146E-2,1.2681648E-1,3.0586724E0,1.7818436E-1,2.0705312E-1,5E-1,1.6861841E-1,1.5E0,4.0178573E-1,1.5E0,1.5E0,1.0447175E-1,-9.586401E-2,-2.2707911E-2,8.2420796E-2,4.8595224E-2,-8.794436E-2,2.2505882E-1,-4.1573986E-2,-6.2289335E-2,3.4506697E-2,-1.5095127E-1,-3.9313022E-2],"split_indices":[5,12,12,10,2,14,0,4,7,0,4,0,0,0,12,3,6,0,0,0,0,0,0,0,0,0,0,0,0],"split_type":[0,0,0,0,0,0,0,0,0,0,0,0,0,0,0,0,0,0,0,0,0,0,0,0,0,0,0,0,0],"sum_hessian":[9.379672E1,8.5790054E1,8.006666E0,8.0604614E1,5.1854415E0,6.883278E0,1.1233886E0,9.66191E0,7.09427E1,2.177444E0,3.0079973E0,2.29996E0,4.5833178E0,5.3207817E0,4.3411283E0,3.5204414E1,3.573829E1,1.9962248E0,1.0117725E0,1.0353383E0,1.2646215E0,2.6307237E0,2.690058E0,3.206027E0,1.1351013E0,1.3528323E1,2.1676092E1,9.826132E0,2.5912157E1],"tree_param":{"num_deleted":"0","num_feature":"18","num_nodes":"29","size_leaf_vector":"0"}},{"base_weights":[5.408086E-2,8.5593015E-1,-1.3208543E-2,9.4047785E-1,2.2597009E-1,4.3478578E-1,-1.259117E-1,-9.107931E-2,6.789353E-1,5.5991584E-1,-2.109398E-1,7.261554E-1,-6.1132336E-1,-1.1758682E-1,9.526372E-1,-4.896035E-1,1.079876E0,-1.448194E-1,-1.060753E0,-2.3348403E-1,-8.984433E-1,-9.428793E-1,5.895289E-1,1.0360202E0,2.1974708E-1,-8.240936E-1,1.1649922E-1,2.150324E-1,1.2264036E0,-3.8939658E-1,4.7100168E-2],"categories":[],"categories_nodes":[],"categories_segments":[],"categories_sizes":[],"default_left":[1,1,1,0,0,1,1,1,1,1,1,0,1,1,1,1,1,1,0,0,0,0,0,0,0,0,0,0,0,0,0],"id":18,"left_children":[1,3,5,-1,-1,7,9,11,13,15,17,-1,19,21,23,25,27,29,-1,-1,-1,-1,-1,-1,-1,-1,-1,-1,-1,-1,-1],"loss_changes":[4.843622E0,1.5759706E-1,4.276313E0,0E0,0E0,2.2484274E0,4.0590363E0,3.1146622E0,2.673448E0,4.7459474E0,3.2656803E0,0E0,2.6552618E-1,2.8288245E0,3.1342697E-1,7.545504E-1,4.306922E-1,2.7228656E0,0E0,0E0,0E0,0E0,0E0,0E0,0E0,0E0,0E0,0E0,0E0,0E0,0E0],"parents":[2147483647,0,0,1,1,2,2,5,5,6,6,7,7,8,8,9,9,10,10,12,12,13,13,14,14,15,15,16,16,17,17],"right_children":[2,4,6,-1,-1,8,10,12,14,16,18,-1,20,22,24,26,28,30,-1,-1,-1,-1,-1,-1,-1,-1,-1,-1,-1,-1,-1],"split_conditions":[6.1336108E-2,4.9107143E-1,5E-1,1.4107168E-1,3.3895515E-2,9.508088E-2,1.0855926E0,5.4995738E-2,1.9180783E0,1.5E0,5.800594E-1,1.08923316E-1,5E-1,1.5E0,1.5E0,3.5E0,1.5E0,2.9737582E0,-1.5911296E-1,-3.5022605E-2,-1.347665E-1,-1.414319E-1,8.842934E-2,1.5540303E-1,3.2962065E-2,-1.2361404E-1,1.7474884E-2,3.225486E-2,1.8396054E-1,-5.840949E-2,7.0650256E-3],"split_indices":[1,12,5,0,0,4,10,4,7,16,4,0,17,11,8,3,7,10,0,0,0,0,0,0,0,0,0,0,0,0,0],"split_type":[0,0,0,0,0,0,0,0,0,0,0,0,0,0,0,0,0,0,0,0,0,0,0,0,0,0,0,0,0,0,0],"sum_hessian":[8.856038E1,5.9490323E0,8.261135E1,4.8104935E0,1.1385387E0,1.6030886E1,6.658047E1,5.281722E0,1.0749164E1,6.728007E0,5.985246E1,1.9004961E0,3.3812258E0,2.8948905E0,7.8542733E0,2.2482944E0,4.4797125E0,5.6617687E1,3.234771E0,2.242876E0,1.1383498E0,1.1819692E0,1.7129215E0,6.6805935E0,1.1736796E0,1.2170053E0,1.031289E0,1.006517E0,3.4731956E0,2.444134E1,3.2176346E1],"tree_param":{"num_deleted":"0","num_feature":"18","num_nodes":"31","size_leaf_vector":"0"}},{"base_weights":[4.378269E-2,3.3251035E-1,-1.3085854E-1,1.1241705E0,2.1577935E-1,-2.2383319E-1,5.9181863E-1,1.409585E0,2.754105E-1,-2.3643476E-1,3.7938103E-1,-3.842809E-1,2.4030487E-1,8.2147753E-1,-1.1406884E-1,1.7709404E-1,-8.125669E-1,7.186189E-1,-1.2265776E-2,-1.4182274E-1,-8.975542E-1,5.7671916E-1,-8.717709E-2,4.9735978E-1,-6.850352E-1,-1.1985394E0,6.720884E-2,9.731944E-2,9.629035E-1,4.835877E-1,-3.1591803E-1,-3.1059134E-1,4.4115838E-1,-1.0294857E0,-2.063009E-1,8.042084E-1,-1.0768219E-1,-4.7064593E-1,6.1017185E-1],"categories":[],"categories_nodes":[],"categories_segments":[],"categories_sizes":[],"default_left":[1,1,1,1,1,1,1,0,0,1,1,1,1,0,0,1,1,1,1,1,1,1,1,0,0,0,0,0,0,0,0,0,0,0,0,0,0,0,0],"id":19,"left_children":[1,3,5,7,9,11,13,-1,-1,15,17,19,21,-1,-1,23,25,27,29,31,33,35,37,-1,-1,-1,-1,-1,-1,-1,-1,-1,-1,-1,-1,-1,-1,-1,-1],"loss_changes":[4.6166873E0,2.942365E0,3.977793E0,6.2711906E-1,2.4034073E0,3.9224863E0,1.1957469E0,0E0,0E0,2.2701123E0,3.111013E0,4.676947E0,1.5736434E0,0E0,0E0,2.0019E0,1.4075859E0,1.807787E0,1.9325733E0,2.833557E0,9.000225E-1,1.1689875E0,2.3931599E0,0E0,0E0,0E0,0E0,0E0,0E0,0E0,0E0,0E0,0E0,0E0,0E0,0E0,0E0,0E0,0E0],"parents":[2147483647,0,0,1,1,2,2,3,3,4,4,5,5,6,6,9,9,10,10,11,11,12,12,15,15,16,16,17,17,18,18,19,19,20,20,21,21,22,22],"right_children":[2,4,6,8,10,12,14,-1,-1,16,18,20,22,-1,-1,24,26,28,30,32,34,36,38,-1,-1,-1,-1,-1,-1,-1,-1,-1,-1,-1,-1,-1,-1,-1,-1],"split_conditions":[2.0121794E0,5E-1,5.707196E-1,1.5E0,1.5E0,1.9720933E0,1.4984164E-1,2.1143776E-1,4.1311577E-2,1.0250683E0,1.9784257E-1,3.063193E-1,5E-1,1.23221636E-1,-1.7110327E-2,2.977254E-1,2.5E0,1.4069708E-1,5E-1,7.5E0,1.5E0,3.5E0,3.5E0,7.460397E-2,-1.02755286E-1,-1.7978092E-1,1.0081327E-2,1.4597916E-2,1.4443552E-1,7.253816E-2,-4.7387708E-2,-4.6588704E-2,6.617376E-2,-1.5442286E-1,-3.0945135E-2,1.2063126E-1,-1.615233E-2,-7.0596896E-2,9.152578E-2],"split_indices":[7,6,12,14,6,15,4,0,0,15,4,12,0,0,0,1,10,12,0,3,8,6,6,0,0,0,0,0,0,0,0,0,0,0,0,0,0,0,0],"split_type":[0,0,0,0,0,0,0,0,0,0,0,0,0,0,0,0,0,0,0,0,0,0,0,0,0,0,0,0,0,0,0,0,0,0,0,0,0,0,0],"sum_hessian":[8.969486E1,3.346481E1,5.6230053E1,3.1912923E0,3.0273518E1,5.0432083E1,5.7979703E0,1.8937266E0,1.2975657E0,7.9243913E0,2.2349125E1,3.7604614E1,1.282747E1,4.251125E0,1.5468454E0,5.0163994E0,2.907992E0,1.1528482E1,1.0820643E1,2.640692E1,1.1197693E1,5.9520264E0,6.875444E0,3.9661484E0,1.0502509E0,1.7694018E0,1.1385901E0,3.648212E0,7.88027E0,3.8846216E0,6.936022E0,2.084088E1,5.56604E0,8.99216E0,2.2055326E0,4.335792E0,1.6162344E0,4.6458216E0,2.2296221E0],"tree_param":{"num_deleted":"0","num_feature":"18","num_nodes":"39","size_leaf_vector":"0"}},{"base_weights":[3.952813E-2,6.3786083E-1,-4.4005085E-2,-3.4866259E-1,8.644164E-1,-2.4523225E-1,3.0057812E-1,9.6002185E-1,3.2628146E-3,8.2164E-1,-3.4432083E-1,5.7811385E-1,-1.071437E-1,1.1132013E-1,1.0713333E0,-9.811385E-2,1.1265379E0,-7.2103256E-1,-1.4391485E-1,9.207499E-1,3.4464076E-1,-6.807791E-1,3.8560113E-1,2.880697E-1,1.1509658E0,7.1839252E-3,-9.033375E-1,-2.2293893E-1,7.862573E-1,1.0515534E0,2.1755245E-1,-2.8565374E-1,5.0538903E-1,-9.947168E-1,-2.1978115E-1,-4.1124287E-1,7.2095793E-1],"categories":[],"categories_nodes":[],"categories_segments":[],"categories_sizes":[],"default_left":[1,1,1,0,1,1,1,1,0,1,1,1,1,0,1,0,0,1,1,1,1,1,1,0,0,0,0,0,0,0,0,0,0,0,0,0,0],"id":20,"left_children":[1,3,5,-1,7,9,11,13,-1,15,17,19,21,-1,23,-1,-1,25,27,29,31,33,35,-1,-1,-1,-1,-1,-1,-1,-1,-1,-1,-1,-1,-1,-1],"loss_changes":[4.8647037E0,2.965434E0,6.02655E0,0E0,8.186002E-1,6.0708203E0,3.6943324E0,7.290907E-1,0E0,1.4981666E0,3.7315454E0,1.223062E0,4.175763E0,0E0,1.563816E-1,0E0,0E0,2.31538E0,2.704645E0,4.3398428E-1,1.466619E0,7.595446E-1,2.45723E0,0E0,0E0,0E0,0E0,0E0,0E0,0E0,0E0,0E0,0E0,0E0,0E0,0E0,0E0],"parents":[2147483647,0,0,1,1,2,2,4,4,5,5,6,6,7,7,9,9,10,10,11,11,12,12,14,14,17,17,18,18,19,19,20,20,21,21,22,22],"right_children":[2,4,6,-1,8,10,12,14,-1,16,18,20,22,-1,24,-1,-1,26,28,30,32,34,36,-1,-1,-1,-1,-1,-1,-1,-1,-1,-1,-1,-1,-1,-1],"split_conditions":[1.0042171E0,1.5E0,5E-1,-5.229939E-2,4.2857143E-1,1.0506136E0,2.0427534E-1,4.0387366E-2,4.8942224E-4,9.956531E-2,1.5E0,5E-1,3.8741727E0,1.669802E-2,1.5E0,-1.4717078E-2,1.6898069E-1,5E-1,1.5E0,1.6461527E-1,5E-1,1.9205981E-1,2.3488943E-1,4.3210454E-2,1.7264488E-1,1.0775889E-3,-1.3550062E-1,-3.344084E-2,1.179386E-1,1.5773301E-1,3.263287E-2,-4.284806E-2,7.580836E-2,-1.4920753E-1,-3.2967173E-2,-6.1686434E-2,1.08143695E-1],"split_indices":[10,14,17,0,12,7,4,4,0,4,14,0,10,0,16,0,0,2,9,4,11,12,1,0,0,0,0,0,0,0,0,0,0,0,0,0,0],"split_type":[0,0,0,0,0,0,0,0,0,0,0,0,0,0,0,0,0,0,0,0,0,0,0,0,0,0,0,0,0,0,0,0,0,0,0,0,0],"sum_hessian":[9.5770134E1,1.0919536E1,8.485059E1,1.9386823E0,8.980853E0,5.3750244E1,3.1100351E1,7.9800935E0,1.0007601E0,3.9482315E0,4.9802013E1,1.8255764E1,1.2844587E1,1.1571795E0,6.8229136E0,1.1518308E0,2.7964008E0,1.6391792E1,3.341022E1,6.205339E0,1.2050426E1,5.7587996E0,7.0857873E0,1.0557793E0,5.7671347E0,3.4743006E0,1.2917492E1,3.1494856E1,1.9153645E0,4.81441E0,1.3909286E0,2.290874E0,9.759551E0,2.7370992E0,3.0217004E0,2.031778E0,5.0540094E0],"tree_param":{"num_deleted":"0","num_feature":"18","num_nodes":"37","size_leaf_vector":"0"}},{"base_weights":[1.217358E-1,4.31195E-1,-3.391639E-2,5.600455E-1,-8.6019653E-1,4.8381665E-1,-1.5369147E-1,8.42225E-1,5.6136448E-2,9.3214566E-1,9.161246E-2,8.58229E-2,-4.7400415E-1,6.079128E-1,1.4295058E0,-4.999226E-1,4.310367E-1,2.0036474E-1,1.3304888E0,-2.7798608E-1,6.4211667E-1,-4.863091E-1,2.990606E-1,-1.5283212E-1,-1.109357E0,3.2462436E-1,9.677785E-1,6.645905E-2,-1.2410419E0,-2.0533927E-1,9.4251585E-1,-6.1404276E-1,2.4096029E-1,-2.9196994E-2,1.000122E0,3.9225164E-1,-7.40374E-1,5.6340504E-1,-3.7684333E-1,2.074169E-1,-6.437845E-1],"categories":[],"categories_nodes":[],"categories_segments":[],"categories_sizes":[],"default_left":[1,1,1,1,0,1,1,1,1,1,1,1,1,1,0,1,1,0,0,1,1,1,1,1,0,0,0,0,0,0,0,0,0,0,0,0,0,0,0,0,0],"id":21,"left_children":[1,3,5,7,-1,9,11,13,15,17,19,21,23,25,-1,27,29,-1,-1,31,33,35,37,39,-1,-1,-1,-1,-1,-1,-1,-1,-1,-1,-1,-1,-1,-1,-1,-1,-1],"loss_changes":[4.2466083E0,5.3863454E0,3.756816E0,3.8497868E0,0E0,1.9187963E0,3.7988148E0,1.5387411E0,2.4897687E0,1.2519832E0,1.6411234E0,3.6681116E0,4.138321E0,1.1382718E0,0E0,2.1209517E0,2.4893203E0,0E0,0E0,1.0197346E0,7.957971E-1,2.1253314E0,4.0812335E0,2.8187633E0,0E0,0E0,0E0,0E0,0E0,0E0,0E0,0E0,0E0,0E0,0E0,0E0,0E0,0E0,0E0,0E0,0E0],"parents":[2147483647,0,0,1,1,2,2,3,3,5,5,6,6,7,7,8,8,9,9,10,10,11,11,12,12,13,13,15,15,16,16,19,19,20,20,21,21,22,22,23,23],"right_children":[2,4,6,8,-1,10,12,14,16,18,20,22,24,26,-1,28,30,-1,-1,32,34,36,38,40,-1,-1,-1,-1,-1,-1,-1,-1,-1,-1,-1,-1,-1,-1,-1,-1,-1],"split_conditions":[1.6212907E-1,2.1416125E-1,5E-1,1.5E0,-1.2902948E-1,3.0329947E0,1.0021479E0,1.4411718E-1,5.7197094E-2,5E-1,5E-1,1.23195894E-1,1.5E0,3.2675952E-1,2.1442588E-1,5.2685156E-2,2.5E0,3.0054713E-2,1.9957332E-1,3.0158174E-1,2.5E0,1.1175866E0,7.5E0,3.136052E0,-1.6640356E-1,4.8693657E-2,1.4516678E-1,9.968858E-3,-1.8615629E-1,-3.0800892E-2,1.4137739E-1,-9.210642E-2,3.6144044E-2,-4.3795495E-3,1.500183E-1,5.883775E-2,-1.1105611E-1,8.451076E-2,-5.65265E-2,3.1112537E-2,-9.656768E-2],"split_indices":[1,4,5,0,0,7,15,1,4,0,13,12,2,12,0,4,7,0,0,12,10,10,3,10,0,0,0,0,0,0,0,0,0,0,0,0,0,0,0,0,0],"split_type":[0,0,0,0,0,0,0,0,0,0,0,0,0,0,0,0,0,0,0,0,0,0,0,0,0,0,0,0,0,0,0,0,0,0,0,0,0,0,0,0,0],"sum_hessian":[8.685882E1,2.8475376E1,5.8383442E1,2.6406912E1,2.0684638E0,1.0398047E1,4.7985394E1,1.6497334E1,9.909578E0,4.209491E0,6.188557E0,2.7874357E1,2.0111036E1,1.3247144E1,3.2501898E0,3.8563244E0,6.0532537E0,2.0135221E0,2.1959684E0,3.9988415E0,2.1897159E0,7.2205396E0,2.0653818E1,1.4182368E1,5.928667E0,8.47648E0,4.770664E0,2.701839E0,1.1544856E0,2.964009E0,3.0892446E0,2.315884E0,1.6829574E0,1.081043E0,1.108673E0,1.4976695E0,5.72287E0,1.4966787E1,5.6870317E0,8.513147E0,5.6692214E0],"tree_param":{"num_deleted":"0","num_feature":"18","num_nodes":"41","size_leaf_vector":"0"}},{"base_weights":[4.32124E-2,9.2271976E-2,-7.9569274E-1,3.1077752E-1,-1.3014364E-1,-1.0758688E0,1.4736778E-1,-4.353146E-1,4.122199E-1,8.361213E-2,-6.2212735E-1,7.6733553E-1,-8.7448514E-1,6.104123E-1,1.6994183E-1,-2.782568E-1,4.542665E-1,1.2942025E-1,-7.144631E-1,7.4407226E-1,-1.9506846E-1,-2.4463445E-1,4.5272216E-1,-4.825122E-1,9.2753214E-1,2.0974277E-1,9.306059E-1,-8.205611E-1,-1.4471188E-1],"categories":[],"categories_nodes":[],"categories_segments":[],"categories_sizes":[],"default_left":[1,1,1,1,1,0,0,1,1,1,1,0,0,1,1,1,1,0,1,0,0,0,0,0,0,0,0,0,0],"id":22,"left_children":[1,3,5,7,9,-1,-1,11,13,15,17,-1,-1,19,21,23,25,-1,27,-1,-1,-1,-1,-1,-1,-1,-1,-1,-1],"loss_changes":[3.8836899E0,4.334729E0,1.5375111E0,3.575273E0,4.731177E0,0E0,0E0,3.764317E0,1.8175015E0,4.404953E0,1.0358763E0,0E0,0E0,2.4729824E0,2.383806E0,4.5755687E0,1.6845114E0,0E0,6.2240696E-1,0E0,0E0,0E0,0E0,0E0,0E0,0E0,0E0,0E0,0E0],"parents":[2147483647,0,0,1,1,2,2,3,3,4,4,7,7,8,8,9,9,10,10,13,13,14,14,15,15,16,16,18,18],"right_children":[2,4,6,8,10,-1,-1,12,14,16,18,-1,-1,20,22,24,26,-1,28,-1,-1,-1,-1,-1,-1,-1,-1,-1,-1],"split_conditions":[5.9950197E-1,3.0129423E0,3.5E0,7.089905E-2,3.0137575E-1,-1.6138034E-1,2.2105167E-2,1.0097535E0,5E-1,6.5E0,1.0029739E0,1.1510033E-1,-1.3117278E-1,4.9596924E-1,1.9117129E-1,5.0892854E-1,1.6994686E0,1.941304E-2,1.5E0,1.11610845E-1,-2.926027E-2,-3.6695167E-2,6.7908324E-2,-7.237683E-2,1.3912983E-1,3.1461418E-2,1.3959089E-1,-1.2308417E-1,-2.1706782E-2],"split_indices":[4,7,7,12,1,0,0,7,8,3,10,0,0,12,1,12,15,0,5,0,0,0,0,0,0,0,0,0,0],"split_type":[0,0,0,0,0,0,0,0,0,0,0,0,0,0,0,0,0,0,0,0,0,0,0,0,0,0,0,0,0],"sum_hessian":[9.15804E1,8.7361465E1,4.2189317E0,4.386769E1,4.3493774E1,3.1440356E0,1.0748962E0,4.8566413E0,3.901105E1,3.0898937E1,1.2594838E1,1.0992241E0,3.7574172E0,2.0622015E1,1.8389036E1,1.5760897E1,1.51380415E1,1.334153E0,1.1260685E1,1.7752445E1,2.8695695E0,7.511513E0,1.0877522E1,1.399076E1,1.770137E0,1.0954823E1,4.183219E0,9.121826E0,2.1388588E0],"tree_param":{"num_deleted":"0","num_feature":"18","num_nodes":"29","size_leaf_vector":"0"}},{"base_weights":[9.3021356E-2,3.3823037E-1,-1.2664467E-1,1.4457573E-1,6.8447596E-1,-2.63831E-1,3.885354E-1,9.708112E-1,-8.7441895E-3,9.422421E-1,-1.1936657E-1,-8.19842E-1,-1.13875516E-1,6.9695395E-1,-3.782596E-2,3.3586794E-1,-2.988225E-1,1.0511388E0,1.6429803E-1,-5.014993E-1,4.205095E-1,-1.0294803E0,-2.3854142E-2,1.8690565E-1,-4.0510935E-1,1.2696077E0,1.9881214E-1,-4.4219452E-1,5.256825E-1,5.3514403E-1,-4.729742E-1,-5.762202E-1,2.4314923E-2,3.3346397E-1,1.1326723E0,-6.1744124E-1,-1.394828E-1,-1.7190342E-1,-1.1700411E0,5.7819384E-1,-2.1015932E-1,-6.257488E-1,2.960481E-1,-1.7374541E-1,5.431389E-1,-9.8462254E-1,1.5893796E-1],"categories":[],"categories_nodes":[],"categories_segments":[],"categories_sizes":[],"default_left":[1,1,1,1,1,1,1,0,1,1,1,1,1,1,1,1,1,1,0,1,0,1,0,1,1,0,1,1,0,0,0,0,0,0,0,0,0,0,0,0,0,0,0,0,0,0,0],"id":23,"left_children":[1,3,5,7,9,11,13,-1,15,17,19,21,23,25,27,29,31,33,-1,35,-1,37,-1,39,41,-1,43,45,-1,-1,-1,-1,-1,-1,-1,-1,-1,-1,-1,-1,-1,-1,-1,-1,-1,-1,-1],"loss_changes":[4.971956E0,2.8187137E0,3.5653887E0,3.7041554E0,3.2909546E0,3.1824198E0,1.4344374E0,0E0,2.6593006E0,8.208189E-1,1.162402E0,1.3411198E0,2.8880162E0,1.5347171E0,1.4727498E0,2.214754E0,1.3073144E0,2.1343231E-1,0E0,4.637438E-2,0E0,5.768757E-1,0E0,2.681613E0,2.757491E0,0E0,6.762618E-1,1.3669255E0,0E0,0E0,0E0,0E0,0E0,0E0,0E0,0E0,0E0,0E0,0E0,0E0,0E0,0E0,0E0,0E0,0E0,0E0,0E0],"parents":[2147483647,0,0,1,1,2,2,3,3,4,4,5,5,6,6,8,8,9,9,10,10,11,11,12,12,13,13,14,14,15,15,16,16,17,17,19,19,21,21,23,23,24,24,26,26,27,27],"right_children":[2,4,6,8,10,12,14,-1,16,18,20,22,24,26,28,30,32,34,-1,36,-1,38,-1,40,42,-1,44,46,-1,-1,-1,-1,-1,-1,-1,-1,-1,-1,-1,-1,-1,-1,-1,-1,-1,-1,-1],"split_conditions":[2.0625445E-1,1.5E0,3.5E0,6.1336108E-2,1.5E0,2.9321155E-1,1.853747E-1,1.4562169E-1,5E-1,1.5E0,2.5E0,5E-1,3.8712794E-1,3.1442374E-1,5E-1,1.5E0,1.02367364E-1,8.035715E-2,2.4644705E-2,1.3392857E-1,6.307643E-2,1.7945713E0,-3.5781215E-3,1.797967E-1,2.5E0,1.9044116E-1,5E-1,4.3365383E-1,7.885238E-2,8.027161E-2,-7.0946135E-2,-8.643304E-2,3.6472387E-3,5.0019596E-2,1.6990085E-1,-9.2616186E-2,-2.092242E-2,-2.5785513E-2,-1.7550617E-1,8.672908E-2,-3.15239E-2,-9.3862325E-2,4.440722E-2,-2.6061812E-2,8.147084E-2,-1.4769338E-1,2.3840696E-2],"split_indices":[1,0,6,1,8,1,4,0,0,5,10,13,1,12,8,5,4,12,0,12,0,7,0,12,6,0,17,1,0,0,0,0,0,0,0,0,0,0,0,0,0,0,0,0,0,0,0],"split_type":[0,0,0,0,0,0,0,0,0,0,0,0,0,0,0,0,0,0,0,0,0,0,0,0,0,0,0,0,0,0,0,0,0,0,0,0,0,0,0,0,0,0,0,0,0,0,0],"sum_hessian":[9.051033E1,4.2513535E1,4.79968E1,2.817362E1,1.4339913E1,3.8288826E1,9.707973E0,3.5751793E0,2.4598442E1,1.0727713E1,3.612201E0,7.184099E0,3.1104727E1,5.264858E0,4.4431148E0,1.1170303E1,1.3428139E1,9.102385E0,1.6253277E0,2.156723E0,1.4554778E0,5.4542766E0,1.7298228E0,1.5477779E1,1.5626948E1,1.7287894E0,3.5360682E0,2.7121696E0,1.730945E0,9.233748E0,1.9365548E0,6.8040166E0,6.6241217E0,1.4478674E0,7.654517E0,1.0991428E0,1.0575801E0,1.0811353E0,4.3731413E0,7.565841E0,7.9119377E0,1.1968319E1,3.658629E0,1.9363576E0,1.5997107E0,1.0903518E0,1.621818E0],"tree_param":{"num_deleted":"0","num_feature":"18","num_nodes":"47","size_leaf_vector":"0"}},{"base_weights":[-8.0960564E-2,4.0300986E-1,-1.4871772E-1,6.567566E-1,-8.630351E-1,8.539827E-1,-1.8896236E-1,-4.937206E-1,8.628822E-1,2.7273852E-1,-2.8186506E-1,1.0863984E0,2.9950204E-1,-1.9969526E-1,5.4782385E-1,-1.8335238E-1,-6.9908094E-1,1.2701855E0,1.0324165E-1,6.029912E-1,-2.1304569E-1,-5.96982E-1,6.7086285E-1,1.2893918E-1,1.054663E0,-1.1066853E-1,-9.48516E-1,-8.8161254E-1,3.4954768E-1],"categories":[],"categories_nodes":[],"categories_segments":[],"categories_sizes":[],"default_left":[1,1,1,1,0,0,1,0,1,1,1,1,1,1,1,1,1,0,0,0,0,0,0,0,0,0,0,0,0],"id":24,"left_children":[1,3,5,7,-1,-1,9,-1,11,13,15,17,19,21,23,25,27,-1,-1,-1,-1,-1,-1,-1,-1,-1,-1,-1,-1],"loss_changes":[3.0020614E0,4.193106E0,3.3667035E0,2.790609E0,0E0,0E0,3.3876104E0,0E0,7.8528166E-1,1.8557568E0,2.5330224E0,9.4110966E-1,7.3293096E-1,2.364259E0,1.7237821E0,2.883524E0,2.607428E0,0E0,0E0,0E0,0E0,0E0,0E0,0E0,0E0,0E0,0E0,0E0,0E0],"parents":[2147483647,0,0,1,1,2,2,3,3,6,6,8,8,9,9,10,10,11,11,12,12,13,13,14,14,15,15,16,16],"right_children":[2,4,6,8,-1,-1,10,-1,12,14,16,18,20,22,24,26,28,-1,-1,-1,-1,-1,-1,-1,-1,-1,-1,-1,-1],"split_conditions":[1.0096823E0,5.827831E-1,2.5475955E-2,5.832732E-2,-1.2945527E-1,1.2809741E-1,5E-1,-7.405809E-2,2.5E0,3.8734524E0,5E-1,4.166156E-1,2.5E0,3.6698195E-1,1.5E0,2.5E0,3.5E0,1.9052783E-1,1.5486249E-2,9.0448685E-2,-3.1956855E-2,-8.954731E-2,1.00629434E-1,1.9340878E-2,1.5819944E-1,-1.6600281E-2,-1.422774E-1,-1.3224189E-1,5.2432153E-2],"split_indices":[7,4,4,4,0,0,5,0,11,7,13,4,10,4,0,2,2,0,0,0,0,0,0,0,0,0,0,0,0],"split_type":[0,0,0,0,0,0,0,0,0,0,0,0,0,0,0,0,0,0,0,0,0,0,0,0,0,0,0,0,0],"sum_hessian":[8.871963E1,1.0287933E1,7.8431694E1,8.971147E0,1.3167864E0,2.2462523E0,7.618544E1,1.151102E0,7.820045E0,1.2437709E1,6.374773E1,4.9341187E0,2.885926E0,4.677902E0,7.759807E0,5.2735363E1,1.1012367E1,3.9110563E0,1.0230626E0,1.7017995E0,1.1841264E0,3.4278338E0,1.2500682E0,4.93533E0,2.8244772E0,4.920587E1,3.529494E0,9.515332E0,1.4970344E0],"tree_param":{"num_deleted":"0","num_feature":"18","num_nodes":"29","size_leaf_vector":"0"}},{"base_weights":[1.827057E-2,-2.6420715E-1,1.07248195E-1,9.501673E-1,-5.049494E-1,3.0490524E-1,-6.4605564E-2,-9.224739E-1,1.5292205E-1,5.1047105E-1,2.7943142E-2,-2.6508898E-1,2.5307712E-1,-1.1936018E0,-1.168192E-1,5.283839E-1,-5.1496565E-1,7.730996E-2,8.0244637E-1,-3.7287948E-1,4.7291726E-1,-6.9702566E-1,8.7152E-2,-2.3836008E-1,5.961303E-1,-1.4617352E0,-2.4464501E-1,-6.1194134E-1,5.963301E-1,7.789233E-1,-1.5757693E-1,-6.950279E-1,-5.8552634E-2,-1.429712E-1,7.948022E-1,3.147234E-1,1.0375657E0,-7.931963E-1,-8.222794E-2,6.93705E-1,-3.499966E-1,7.940777E-2,-9.4496304E-1,3.0704898E-1,-8.4429103E-1,3.7432352E-1,-4.984805E-1,2.2389545E-1,1.2597957E0],"categories":[],"categories_nodes":[],"categories_segments":[],"categories_sizes":[],"default_left":[1,1,1,0,1,1,1,1,1,1,1,1,1,1,1,1,1,1,1,1,1,1,1,1,1,0,0,0,0,0,0,0,0,0,0,0,0,0,0,0,0,0,0,0,0,0,0,0,0],"id":25,"left_children":[1,3,5,-1,7,9,11,13,15,17,19,21,23,25,27,29,31,33,35,37,39,41,43,45,47,-1,-1,-1,-1,-1,-1,-1,-1,-1,-1,-1,-1,-1,-1,-1,-1,-1,-1,-1,-1,-1,-1,-1,-1],"loss_changes":[2.3170247E0,6.9409666E0,2.3960397E0,0E0,5.3866544E0,1.8481152E0,2.50303E0,2.4435453E0,2.3465261E0,2.3052392E0,2.8505173E0,3.7026837E0,2.7231317E0,1.8660011E0,1.8076475E0,1.1176416E0,2.455743E-1,1.4797055E0,9.433942E-1,9.667388E-1,1.6138715E0,2.1663074E0,3.1418552E0,1.3034766E0,2.015796E0,0E0,0E0,0E0,0E0,0E0,0E0,0E0,0E0,0E0,0E0,0E0,0E0,0E0,0E0,0E0,0E0,0E0,0E0,0E0,0E0,0E0,0E0,0E0,0E0],"parents":[2147483647,0,0,1,1,2,2,4,4,5,5,6,6,7,7,8,8,9,9,10,10,11,11,12,12,13,13,14,14,15,15,16,16,17,17,18,18,19,19,20,20,21,21,22,22,23,23,24,24],"right_children":[2,4,6,-1,8,10,12,14,16,18,20,22,24,26,28,30,32,34,36,38,40,42,44,46,48,-1,-1,-1,-1,-1,-1,-1,-1,-1,-1,-1,-1,-1,-1,-1,-1,-1,-1,-1,-1,-1,-1,-1,-1],"split_conditions":[6.4542755E-2,6.1336108E-2,1.5705028E-1,1.425251E-1,2.5E0,2.3218171E-1,4.7044298E-1,3.1993103E-1,1.6212907E-1,1.23195894E-1,3.9088476E0,1.5E0,1.9058138E-1,1.5055603E-1,5E-1,2.5E0,1.5E0,1.9734831E0,1.0979922E-1,2.7678573E-1,3.3823532E-1,1.5464458E-1,3.9161956E-1,2.5215966E-1,2.5E0,-2.1926029E-1,-3.6696754E-2,-9.1791205E-2,8.944952E-2,1.1683849E-1,-2.363654E-2,-1.04254186E-1,-8.782895E-3,-2.144568E-2,1.1922033E-1,4.7208514E-2,1.5563487E-1,-1.18979454E-1,-1.2334191E-2,1.04055755E-1,-5.249949E-2,1.1911166E-2,-1.4174446E-1,4.6057347E-2,-1.2664366E-1,5.614853E-2,-7.4772075E-2,3.358432E-2,1.8896936E-1],"split_indices":[4,1,4,0,11,12,1,12,1,12,10,11,12,1,8,6,16,15,4,12,1,12,1,4,16,0,0,0,0,0,0,0,0,0,0,0,0,0,0,0,0,0,0,0,0,0,0,0,0],"split_type":[0,0,0,0,0,0,0,0,0,0,0,0,0,0,0,0,0,0,0,0,0,0,0,0,0,0,0,0,0,0,0,0,0,0,0,0,0,0,0,0,0,0,0,0,0,0,0,0,0],"sum_hessian":[9.005877E1,2.1100746E1,6.895802E1,3.0034814E0,1.8097265E1,3.1711235E1,3.7246788E1,1.0824917E1,7.272348E0,1.7717733E1,1.3993502E1,2.293715E1,1.4309637E1,7.738979E0,3.0859382E0,4.789014E0,2.483334E0,7.643287E0,1.0074446E1,7.4472275E0,6.546274E0,9.863351E0,1.3073798E1,6.00805E0,8.301587E0,5.6127133E0,2.1262655E0,1.9051535E0,1.1807846E0,3.4085562E0,1.3804576E0,1.4058851E0,1.077449E0,6.4605374E0,1.1827497E0,4.037589E0,6.0368567E0,2.3376615E0,5.1095657E0,5.2852545E0,1.2610196E0,2.5518332E0,7.3115177E0,1.1119124E1,1.9546742E0,1.6597236E0,4.348326E0,6.1753407E0,2.126247E0],"tree_param":{"num_deleted":"0","num_feature":"18","num_nodes":"49","size_leaf_vector":"0"}},{"base_weights":[-2.5640529E-2,-1.22264676E-1,2.341847E-1,-8.288478E-3,-1.0919104E0,4.460853E-1,-2.523034E-1,3.7688965E-1,-1.3784723E-1,-3.0895624E-1,5.563481E-1,-7.094041E-1,5.3388274E-1,-3.5939956E-1,7.7134484E-1,-2.364902E-1,2.7180034E-1,1.0243405E0,2.4159805E-1,-1.0467148E0,3.1709215E-1,9.297797E-1,-3.125299E-2,-7.151079E-1,5.881526E-1,9.0791416E-1,1.13207944E-1,-3.0061287E-1,4.4485435E-1,-2.8707808E-1,5.935461E-1,6.3028246E-1,-2.4666966E-1],"categories":[],"categories_nodes":[],"categories_segments":[],"categories_sizes":[],"default_left":[1,1,1,1,0,1,1,1,1,0,1,1,1,1,1,1,1,0,1,0,0,0,0,0,0,0,0,0,0,0,0,0,0],"id":26,"left_children":[1,3,5,7,-1,9,11,13,15,-1,17,19,21,23,25,27,29,-1,31,-1,-1,-1,-1,-1,-1,-1,-1,-1,-1,-1,-1,-1,-1],"loss_changes":[2.1146731E0,6.7572618E0,2.4698324E0,2.836175E0,0E0,1.5280814E0,3.1016076E0,4.433523E0,1.7809169E0,0E0,1.8988843E0,2.1395302E0,7.79973E-1,2.3331554E0,7.6334286E-1,1.6529102E0,1.7365294E0,0E0,2.0572147E0,0E0,0E0,0E0,0E0,0E0,0E0,0E0,0E0,0E0,0E0,0E0,0E0,0E0,0E0],"parents":[2147483647,0,0,1,1,2,2,3,3,5,5,6,6,7,7,8,8,10,10,11,11,12,12,13,13,14,14,15,15,16,16,18,18],"right_children":[2,4,6,8,-1,10,12,14,16,-1,18,20,22,24,26,28,30,-1,32,-1,-1,-1,-1,-1,-1,-1,-1,-1,-1,-1,-1,-1,-1],"split_conditions":[1.9307544E0,1.0021479E0,1.5E0,5E-1,-1.6378656E-1,5E-1,3.2352942E-1,1.6023836E-1,1.5E0,-4.634344E-2,1.5E0,1.5E0,4.7044298E-1,2.5E0,5E-1,5E-1,8.832726E-2,1.5365109E-1,5E-1,-1.5700722E-1,4.7563825E-2,1.3946696E-1,-4.687949E-3,-1.07266195E-1,8.822289E-2,1.3618714E-1,1.6981192E-2,-4.509193E-2,6.672815E-2,-4.3061715E-2,8.903192E-2,9.454238E-2,-3.700045E-2],"split_indices":[15,15,2,0,0,14,1,1,5,0,11,5,1,11,13,9,4,0,0,0,0,0,0,0,0,0,0,0,0,0,0,0,0],"split_type":[0,0,0,0,0,0,0,0,0,0,0,0,0,0,0,0,0,0,0,0,0,0,0,0,0,0,0,0,0,0,0,0,0],"sum_hessian":[8.209134E1,6.0224434E1,2.1866907E1,5.479245E1,5.4319854E0,1.5290043E1,6.5768647E0,1.3310704E1,4.1481747E1,1.7187352E0,1.3571307E1,4.2206044E0,2.3562603E0,4.6743827E0,8.636322E0,3.377213E1,7.709617E0,4.5506396E0,9.020668E0,3.161896E0,1.0587083E0,1.0061706E0,1.3500897E0,3.5769255E0,1.0974573E0,6.8378787E0,1.798443E0,3.137789E1,2.3942394E0,2.8561609E0,4.8534565E0,4.8605685E0,4.160099E0],"tree_param":{"num_deleted":"0","num_feature":"18","num_nodes":"33","size_leaf_vector":"0"}},{"base_weights":[6.433966E-2,1.0097894E-1,-5.638446E-1,5.545403E-1,2.8753236E-2,-7.927029E-1,5.6688752E-2,-3.4196994E-1,8.293232E-1,-5.9476554E-2,3.9254552E-1,-5.8676094E-1,8.393444E-2,1.0589536E0,-5.453581E-1,-1.4278984E-1,4.8217136E-1,-1.2280329E-1,6.46125E-1,1.1668953E0,1.4905913E-1,2.9731467E-1,-3.0617473E-1,1.068522E0,-7.698073E-2,-6.3384855E-1,3.092782E-1,-1.1155099E-1,7.729012E-1],"categories":[],"categories_nodes":[],"categories_segments":[],"categories_sizes":[],"default_left":[1,1,1,1,1,0,0,1,1,1,1,0,0,1,0,1,1,1,1,0,0,0,0,0,0,0,0,0,0],"id":27,"left_children":[1,3,5,7,9,-1,-1,11,13,15,17,-1,-1,19,-1,21,23,25,27,-1,-1,-1,-1,-1,-1,-1,-1,-1,-1],"loss_changes":[2.151905E0,2.829261E0,7.7889454E-1,3.20922E0,2.4620097E0,0E0,0E0,4.1354004E-1,3.5390878E0,2.8673964E0,2.0345426E0,0E0,0E0,6.4901066E-1,0E0,4.011361E0,2.8676672E0,1.4710858E0,1.0647478E0,0E0,0E0,0E0,0E0,0E0,0E0,0E0,0E0,0E0,0E0],"parents":[2147483647,0,0,1,1,2,2,3,3,4,4,7,7,8,8,9,9,10,10,13,13,15,15,16,16,17,17,18,18],"right_children":[2,4,6,8,10,-1,-1,12,14,16,18,-1,-1,20,-1,22,24,26,28,-1,-1,-1,-1,-1,-1,-1,-1,-1,-1],"split_conditions":[5.857229E-1,1.0096823E0,3.8734524E0,1.9799451E0,3.5E0,-1.1890544E-1,8.503313E-3,1.0641576E-1,2.5E0,2.5E0,1.5E0,-8.801414E-2,1.2590167E-2,5E-1,-8.1803724E-2,5E-1,1.5E0,2.5426242E-1,3.988198E-2,1.750343E-1,2.235887E-2,4.45972E-2,-4.592621E-2,1.602783E-1,-1.154711E-2,-9.507728E-2,4.639173E-2,-1.6732648E-2,1.15935184E-1],"split_indices":[4,7,7,10,6,0,0,4,16,16,14,0,0,13,0,0,14,1,4,0,0,0,0,0,0,0,0,0,0],"split_type":[0,0,0,0,0,0,0,0,0,0,0,0,0,0,0,0,0,0,0,0,0,0,0,0,0,0,0,0,0],"sum_hessian":[9.00214E1,8.58532E1,4.1681952E0,1.0876063E1,7.497714E1,2.842428E0,1.3257673E0,2.49414E0,8.381924E0,6.101565E1,1.3961491E1,1.3439908E0,1.150149E0,7.3789907E0,1.002933E0,5.3519897E1,7.4957557E0,4.7743382E0,9.187152E0,6.3439507E0,1.0350403E0,1.4267712E1,3.9252186E1,3.21422E0,4.281536E0,1.9733679E0,2.8009706E0,1.3340878E0,7.853064E0],"tree_param":{"num_deleted":"0","num_feature":"18","num_nodes":"29","size_leaf_vector":"0"}},{"base_weights":[-6.099879E-3,-1.4483796E-1,2.2095285E-1,5.0955255E-2,-4.7443673E-1,8.768985E-1,1.07349135E-1,2.2109988E-1,-5.287304E-1,-7.812012E-1,-2.4808473E-3,-8.709676E-2,5.392772E-1,3.495123E-2,8.135229E-1,2.916351E-1,-9.0856355E-1,-2.2144338E-1,-9.692999E-1,2.991935E-1,-8.9557236E-1,-3.910425E-1,2.2896495E-1,-3.8019368E-1,8.1619924E-1,1.487166E-1,-8.5295606E-1,1.0503831E0,2.1604392E-1,-2.855833E-1,6.976485E-1,-1.079608E0,-6.479839E-2,-9.8935354E-1,3.442586E-1,-1.169649E0,-3.537545E-1,6.5718824E-1,-2.225591E-1,2.9989067E-1,-9.478794E-1,4.142476E-1,-3.985679E-1,-8.423155E-3,1.1608163E0],"categories":[],"categories_nodes":[],"categories_segments":[],"categories_sizes":[],"default_left":[1,1,1,1,1,0,1,1,1,1,1,1,1,1,1,1,1,1,1,1,0,1,1,0,1,0,0,0,0,0,0,0,0,0,0,0,0,0,0,0,0,0,0,0,0],"id":28,"left_children":[1,3,5,7,9,-1,11,13,15,17,19,21,23,25,27,29,31,33,35,37,-1,39,41,-1,43,-1,-1,-1,-1,-1,-1,-1,-1,-1,-1,-1,-1,-1,-1,-1,-1,-1,-1,-1,-1],"loss_changes":[2.7602243E0,3.5323963E0,2.3831978E0,3.5696626E0,2.9451866E0,0E0,2.5226085E0,3.0338652E0,2.8320549E0,1.0839858E0,2.698709E0,2.1248853E0,2.6756203E0,2.366752E0,7.0629406E-1,9.8767567E-1,7.778015E-1,2.2512455E0,6.8820477E-1,1.5459585E0,0E0,4.5817165E0,1.44609E0,0E0,2.1289268E0,0E0,0E0,0E0,0E0,0E0,0E0,0E0,0E0,0E0,0E0,0E0,0E0,0E0,0E0,0E0,0E0,0E0,0E0,0E0,0E0],"parents":[2147483647,0,0,1,1,2,2,3,3,4,4,6,6,7,7,8,8,9,9,10,10,11,11,12,12,13,13,14,14,15,15,16,16,17,17,18,18,19,19,21,21,22,22,24,24],"right_children":[2,4,6,8,10,-1,12,14,16,18,20,22,24,26,28,30,32,34,36,38,-1,40,42,-1,44,-1,-1,-1,-1,-1,-1,-1,-1,-1,-1,-1,-1,-1,-1,-1,-1,-1,-1,-1,-1],"split_conditions":[2.8443944E-1,1.7889361E-1,1.0560441E-1,3.8387823E-1,5E-1,1.3153479E-1,5E-1,1.6352065E-1,2.1163404E-1,1.2194185E-1,3.5E0,2.8858152E-1,1.8401656E0,2.5E0,1.0878421E0,5E-1,1.4627951E-1,5.1254448E-2,2.9123225E0,3.0289185E0,-1.3433586E-1,1.06966E-1,4.2555296E-1,-5.7029054E-2,3.5894963E-1,2.230749E-2,-1.2794341E-1,1.5755747E-1,3.240659E-2,-4.2837493E-2,1.04647286E-1,-1.619412E-1,-9.719759E-3,-1.4840303E-1,5.1638793E-2,-1.7544736E-1,-5.3063177E-2,9.857824E-2,-3.3383865E-2,4.4983603E-2,-1.4218192E-1,6.213714E-2,-5.9785184E-2,-1.2634733E-3,1.7412245E-1],"split_indices":[12,12,1,1,17,0,8,4,4,1,6,1,10,2,15,8,12,4,10,7,0,4,4,0,12,0,0,0,0,0,0,0,0,0,0,0,0,0,0,0,0,0,0,0,0],"split_type":[0,0,0,0,0,0,0,0,0,0,0,0,0,0,0,0,0,0,0,0,0,0,0,0,0,0,0,0,0,0,0,0,0,0,0,0,0,0,0,0,0,0,0,0,0],"sum_hessian":[8.560785E1,5.336304E1,3.224481E1,3.400706E1,1.9355982E1,3.7682252E0,2.8476582E1,2.6768711E1,7.2383485E0,1.1333882E1,8.0221E0,2.0187088E1,8.289494E0,2.1174383E1,5.5943284E0,2.364244E0,4.8741045E0,3.3982863E0,7.935596E0,6.4936304E0,1.5284702E0,1.0169853E1,1.0017234E1,1.8324013E0,6.457093E0,1.950745E1,1.6669326E0,3.463327E0,2.1310015E0,1.0987694E0,1.2654747E0,3.8201814E0,1.053923E0,1.1238394E0,2.274447E0,5.307813E0,2.6277823E0,3.6972353E0,2.796395E0,4.74438E0,5.4254727E0,7.996192E0,2.0210423E0,2.1906705E0,4.2664223E0],"tree_param":{"num_deleted":"0","num_feature":"18","num_nodes":"45","size_leaf_vector":"0"}},{"base_weights":[-1.6267045E-3,-5.3127814E-2,8.762436E-1,-2.8174194E-3,-5.409971E-1,9.4948925E-2,1.0662875E0,-2.9307106E-1,9.7519025E-2,-2.6481152E-2,-7.876278E-1,5.287177E-2,-6.3223165E-1,1.0713773E0,1.1411005E-2,-6.099567E-1,6.7237896E-1,-9.902936E-1,-2.4413799E-1,4.7504035E-1,-3.7196463E-1,-1.0913408E0,-8.4065765E-2,2.4819162E-1,-1.7839894E-1],"categories":[],"categories_nodes":[],"categories_segments":[],"categories_sizes":[],"default_left":[1,1,1,1,1,0,0,1,1,1,1,1,1,0,1,0,0,0,0,0,0,0,0,0,0],"id":29,"left_children":[1,3,5,7,9,-1,-1,11,13,15,17,19,21,-1,23,-1,-1,-1,-1,-1,-1,-1,-1,-1,-1],"loss_changes":[3.95408E0,2.0254312E0,6.183784E-1,2.2380514E0,9.5810246E-1,0E0,0E0,2.349369E0,4.7783723E0,1.8513963E0,3.2880807E-1,2.0947769E0,2.4360614E0,0E0,2.4486566E0,0E0,0E0,0E0,0E0,0E0,0E0,0E0,0E0,0E0,0E0],"parents":[2147483647,0,0,1,1,2,2,3,3,4,4,7,7,8,8,9,9,10,10,11,11,12,12,14,14],"right_children":[2,4,6,8,10,-1,-1,12,14,16,18,20,22,-1,24,-1,-1,-1,-1,-1,-1,-1,-1,-1,-1],"split_conditions":[1.5E0,4.3424672E-1,1.1607143E-1,1.24323025E-1,5E-1,1.4242339E-2,1.5994313E-1,7.358163E-2,1.2568727E-1,1.5E0,3.6230128E0,1.6571966E-1,3.9496126E0,1.607066E-1,3.0129423E0,-9.14935E-2,1.0085685E-1,-1.4854404E-1,-3.66207E-2,7.125606E-2,-5.5794697E-2,-1.6370112E-1,-1.26098655E-2,3.7228744E-2,-2.6759842E-2],"split_indices":[9,4,12,12,0,0,0,12,12,3,10,1,7,0,7,0,0,0,0,0,0,0,0,0,0],"split_type":[0,0,0,0,0,0,0,0,0,0,0,0,0,0,0,0,0,0,0,0,0,0,0,0,0],"sum_hessian":[8.5428116E1,8.1581535E1,3.8465788E0,7.4866844E1,6.7146955E0,1.0459913E0,2.8005877E0,1.8738668E1,5.6128174E1,2.534547E0,4.180148E0,9.694459E0,9.04421E0,3.630131E0,5.2498043E1,1.4506321E0,1.083915E0,2.445957E0,1.7341915E0,4.8032246E0,4.8912344E0,4.3826685E0,4.661542E0,2.322196E1,2.9276083E1],"tree_param":{"num_deleted":"0","num_feature":"18","num_nodes":"25","size_leaf_vector":"0"}},{"base_weights":[-6.2779084E-2,-1.3101783E-1,5.0238293E-1,1.3246854E-1,-2.4759702E-1,7.4664456E-1,-2.1407646E-1,-2.0465535E-1,4.5684412E-1,-1.4226468E-1,-6.561441E-1,8.6822087E-1,1.2251998E-2,-5.1130176E-1,1.6659583E-1,-7.4656713E-1,1.8593794E-1,-3.475352E-1,5.963892E-1,6.223279E-2,-3.6884665E-1,7.922978E-2,-9.091837E-1,3.463412E-2,-9.9441403E-1,-2.340119E-1,5.583309E-1,-1.2562783E-1,7.690019E-1,-5.7684574E-2,7.5286543E-1,-5.11234E-1,1.157004E-1,-4.9583957E-1,6.0502535E-1,-1.1466559E0,-3.1128713E-1],"categories":[],"categories_nodes":[],"categories_segments":[],"categories_sizes":[],"default_left":[1,1,1,1,1,1,1,1,1,1,1,0,0,0,0,1,1,0,1,1,1,1,1,0,0,0,0,0,0,0,0,0,0,0,0,0,0],"id":30,"left_children":[1,3,5,7,9,11,13,15,17,19,21,-1,-1,-1,-1,23,25,-1,27,29,31,33,35,-1,-1,-1,-1,-1,-1,-1,-1,-1,-1,-1,-1,-1,-1],"loss_changes":[3.3454137E0,2.387878E0,1.7993395E0,2.7364724E0,2.208988E0,6.330452E-1,4.4261464E-1,2.7935753E0,1.6245761E0,2.0529907E0,2.0611377E0,0E0,0E0,0E0,0E0,1.090214E0,1.3957107E0,0E0,1.4835079E0,2.021454E0,1.5030422E0,1.4055882E0,7.836375E-1,0E0,0E0,0E0,0E0,0E0,0E0,0E0,0E0,0E0,0E0,0E0,0E0,0E0,0E0],"parents":[2147483647,0,0,1,1,2,2,3,3,4,4,5,5,6,6,7,7,8,8,9,9,10,10,15,15,16,16,18,18,19,19,20,20,21,21,22,22],"right_children":[2,4,6,8,10,12,14,16,18,20,22,-1,-1,-1,-1,24,26,-1,28,30,32,34,36,-1,-1,-1,-1,-1,-1,-1,-1,-1,-1,-1,-1,-1,-1],"split_conditions":[5.298695E-1,5E-1,2.977254E-1,6.5E0,3.393454E-1,2.4202156E-1,4.2647058E-1,1.4451964E-1,8.0882356E-2,5E-1,2.2435737E0,1.3023314E-1,1.8377998E-3,-7.669526E-2,2.4989376E-2,5.686695E-2,2.2804609E-1,-5.2130282E-2,1.5E0,2.5E0,2.5E0,5E-1,1.5E0,5.1951185E-3,-1.4916211E-1,-3.5101786E-2,8.374964E-2,-1.8844176E-2,1.1535029E-1,-8.652686E-3,1.1292982E-1,-7.66851E-2,1.735506E-2,-7.4375935E-2,9.075381E-2,-1.719984E-1,-4.669307E-2],"split_indices":[12,0,1,3,12,4,1,4,1,8,10,0,0,0,0,4,12,0,16,16,8,8,11,0,0,0,0,0,0,0,0,0,0,0,0,0,0],"split_type":[0,0,0,0,0,0,0,0,0,0,0,0,0,0,0,0,0,0,0,0,0,0,0,0,0,0,0,0,0,0,0,0,0,0,0,0,0],"sum_hessian":[8.403854E1,7.567016E1,8.368385E0,2.3168833E1,5.2501328E1,6.2093186E0,2.1590667E0,1.1542147E1,1.1626686E1,4.2811745E1,9.68958E0,5.1710396E0,1.038279E0,1.0197225E0,1.1393442E0,4.452856E0,7.08929E0,1.4984851E0,1.01282015E1,2.288376E1,1.9927986E1,2.6564364E0,7.0331435E0,1.2796674E0,3.173189E0,3.5065415E0,3.582749E0,2.006686E0,8.121515E0,2.0279095E1,2.6046662E0,1.5359438E1,4.5685472E0,1.2959796E0,1.3604568E0,4.376909E0,2.656235E0],"tree_param":{"num_deleted":"0","num_feature":"18","num_nodes":"37","size_leaf_vector":"0"}},{"base_weights":[8.283367E-3,6.994784E-2,-6.549352E-1,3.9215213E-1,-2.7136793E-2,-9.76078E-1,-1.992742E-3,-8.300129E-2,6.8083626E-1,-1.928336E-1,1.5452655E-1,-3.7723425E-1,3.9822719E-1,4.6893033E-1,-9.5527726E-1,8.3228165E-1,8.039789E-2,-2.9892206E-1,5.857543E-1,-4.131615E-1,3.6058664E-1,9.9661183E-1,-4.6303523E-1,3.2233804E-1,9.311199E-1,-4.584319E-1,6.42325E-1,3.666376E-2,-5.280433E-1,9.424328E-1,-2.0686714E-1,-7.466269E-1,3.4089702E-1,2.065479E-1,1.1126201E0],"categories":[],"categories_nodes":[],"categories_segments":[],"categories_sizes":[],"default_left":[1,1,1,1,1,0,1,1,1,1,1,0,0,1,0,1,1,1,1,1,1,0,0,0,0,0,0,0,0,0,0,0,0,0,0],"id":31,"left_children":[1,3,5,7,9,-1,11,13,15,17,19,-1,-1,21,-1,23,25,27,29,31,33,-1,-1,-1,-1,-1,-1,-1,-1,-1,-1,-1,-1,-1,-1],"loss_changes":[3.3696992E0,2.3649876E0,1.4680445E0,2.4558525E0,1.7989067E0,0E0,6.478091E-1,4.0597863E0,9.32415E-1,2.7506852E0,3.493444E0,0E0,0E0,3.0509698E0,0E0,1.3680792E-1,1.2998471E0,2.1803215E0,1.3476113E0,2.286284E0,2.2620125E0,0E0,0E0,0E0,0E0,0E0,0E0,0E0,0E0,0E0,0E0,0E0,0E0,0E0,0E0],"parents":[2147483647,0,0,1,1,2,2,3,3,4,4,6,6,7,7,8,8,9,9,10,10,13,13,15,15,16,16,17,17,18,18,19,19,20,20],"right_children":[2,4,6,8,10,-1,12,14,16,18,20,-1,-1,22,-1,24,26,28,30,32,34,-1,-1,-1,-1,-1,-1,-1,-1,-1,-1,-1,-1,-1,-1],"split_conditions":[4.269544E-1,5E-1,5.550978E-1,2.3052506E-1,3.9737582E0,-1.464117E-1,2.5E0,1.6155483E-1,5E-1,3.274179E-1,1.5E0,-5.658514E-2,5.973408E-2,3.3084825E-1,-1.432916E-1,2.951492E-1,4.464286E-1,1.6308351E-1,3.7269437E-1,1.3596347E-1,1.5E0,1.4949179E-1,-6.945529E-2,4.835071E-2,1.3966799E-1,-6.876479E-2,9.6348755E-2,5.499564E-3,-7.9206504E-2,1.4136493E-1,-3.1030072E-2,-1.1199404E-1,5.1134557E-2,3.0982187E-2,1.6689302E-1],"split_indices":[4,2,1,12,7,0,6,12,13,4,3,0,0,1,0,12,12,1,1,4,13,0,0,0,0,0,0,0,0,0,0,0,0,0,0],"split_type":[0,0,0,0,0,0,0,0,0,0,0,0,0,0,0,0,0,0,0,0,0,0,0,0,0,0,0,0,0,0,0,0,0,0,0],"sum_hessian":[8.027457E1,7.426419E1,6.010374E0,1.6491837E1,5.7772354E1,3.6971025E0,2.3132715E0,6.5021863E0,9.989651E0,3.0181784E1,2.7590572E1,1.2235335E0,1.089738E0,4.2655625E0,2.2366238E0,7.669172E0,2.3204787E0,2.7104643E1,3.07714E0,7.0801005E0,2.0510471E1,2.679217E0,1.5863457E0,1.9369562E0,5.732216E0,1.2786067E0,1.041872E0,1.1338104E1,1.576654E1,1.9918175E0,1.0853226E0,4.915976E0,2.1641243E0,1.8081497E1,2.428974E0],"tree_param":{"num_deleted":"0","num_feature":"18","num_nodes":"35","size_leaf_vector":"0"}},{"base_weights":[-4.5878734E-2,-1.302621E-1,2.3561372E-1,-4.970788E-1,-7.930058E-3,7.655052E-1,3.1395517E-2,4.894816E-1,-7.1927965E-1,-1.9002351E-1,2.9527962E-1,9.170002E-1,1.0318107E-1,-2.0273505E-1,6.1229926E-1,-2.0829929E-2,7.050034E-1,-1.1202646E0,-5.201679E-2,-1.12517975E-1,-9.0736276E-1,7.884513E-1,-5.978019E-2,3.4242216E-1,-4.0828136E-1,1.0375651E0,-1.7175084E-1,-1.3754108E0,-4.794924E-1,-7.193883E-1,3.2220984E-1,-4.8966435E-1,6.80443E-2,1.2495251E0,1.0159283E-1,5.9838086E-1,-2.995989E-1,-3.1638172E-1,7.2419375E-1,-7.731105E-1,-5.1994182E-2],"categories":[],"categories_nodes":[],"categories_segments":[],"categories_sizes":[],"default_left":[1,1,1,1,1,1,1,1,1,1,1,0,0,1,1,0,0,1,1,1,0,1,1,1,1,0,0,0,0,0,0,0,0,0,0,0,0,0,0,0,0],"id":32,"left_children":[1,3,5,7,9,11,13,15,17,19,21,-1,-1,23,25,-1,-1,27,29,31,-1,33,35,37,39,-1,-1,-1,-1,-1,-1,-1,-1,-1,-1,-1,-1,-1,-1,-1,-1],"loss_changes":[2.0008621E0,2.8884907E0,2.0845618E0,3.8823247E0,2.7810385E0,4.4498563E-1,2.178893E0,4.0571886E-1,3.5668488E0,1.646105E0,3.3583367E0,0E0,0E0,1.4305724E0,1.7081968E0,0E0,0E0,7.1615505E-1,1.7638559E0,2.0435283E0,0E0,2.4021254E0,2.0613317E0,1.1591744E0,1.1064191E0,0E0,0E0,0E0,0E0,0E0,0E0,0E0,0E0,0E0,0E0,0E0,0E0,0E0,0E0,0E0,0E0],"parents":[2147483647,0,0,1,1,2,2,3,3,4,4,5,5,6,6,7,7,8,8,9,9,10,10,13,13,14,14,17,17,18,18,19,19,21,21,22,22,23,23,24,24],"right_children":[2,4,6,8,10,12,14,16,18,20,22,-1,-1,24,26,-1,-1,28,30,32,-1,34,36,38,40,-1,-1,-1,-1,-1,-1,-1,-1,-1,-1,-1,-1,-1,-1,-1,-1],"split_conditions":[2.5E0,1.606694E-1,4.8912503E-2,6.2396638E-2,2.5E0,1.8382353E-1,1.7282932E-1,1.5E0,7.2136015E-2,5.127655E-1,2.3994078E-1,1.3755003E-1,1.5477161E-2,5E-1,1.0878421E0,-3.1244894E-3,1.0575051E-1,3.5035443E0,5E-1,1.1400188E-1,-1.3610442E-1,1.784004E-1,2.0664646E-1,2.2321428E-1,2.9089775E0,1.5563478E-1,-2.5762627E-2,-2.0631163E-1,-7.192386E-2,-1.0790825E-1,4.8331477E-2,-7.344966E-2,1.0206645E-2,1.8742877E-1,1.5238925E-2,8.975713E-2,-4.493984E-2,-4.745726E-2,1.0862907E-1,-1.1596658E-1,-7.7991276E-3],"split_indices":[11,1,4,1,6,1,4,6,4,4,12,0,0,0,15,0,0,10,11,4,0,4,1,12,7,0,0,0,0,0,0,0,0,0,0,0,0,0,0,0,0],"split_type":[0,0,0,0,0,0,0,0,0,0,0,0,0,0,0,0,0,0,0,0,0,0,0,0,0,0,0,0,0,0,0,0,0,0,0,0,0,0,0,0,0],"sum_hessian":[8.194308E1,6.345756E1,1.8485514E1,1.510409E1,4.835347E1,4.377808E0,1.4107706E1,2.5553937E0,1.25486965E1,3.0443708E1,1.7909763E1,3.2499263E0,1.127882E0,1.0519052E1,3.5886545E0,1.0270056E0,1.5283883E0,7.4142694E0,5.134427E0,2.8519182E1,1.924525E0,6.9858823E0,1.0923881E1,2.697838E0,7.8212137E0,2.1170397E0,1.471615E0,4.482796E0,2.9314728E0,1.513326E0,3.621101E0,8.679059E0,1.9840124E1,3.689805E0,3.2960773E0,2.5180845E0,8.405796E0,1.0526365E0,1.6452014E0,3.2862587E0,4.5349545E0],"tree_param":{"num_deleted":"0","num_feature":"18","num_nodes":"41","size_leaf_vector":"0"}},{"base_weights":[8.004672E-2,-3.1053817E-1,2.603017E-1,1.2349998E-1,-5.6516767E-1,7.077007E-1,1.4063302E-1,-3.835641E-1,4.970709E-1,2.3080908E-1,-6.587509E-1,4.098848E-1,1.2676086E0,-3.7423718E-1,2.580224E-1,3.2141355E-1,-6.9506514E-1,-2.2036214E-1,7.6411074E-1,-8.2809365E-1,-1.1904068E-1,3.8888894E-2,9.6748394E-1,-6.568241E-1,7.833854E-1,3.5914513E-1,-2.8271586E-1,-1.4867823E-1,-9.732683E-1,2.0538309E-1,9.5766914E-1,-1.0129968E0,-1.6297247E-1,-8.649296E-1,6.405698E-1,6.053658E-1,-3.2511678E-1,1.4689678E-1,-9.969206E-1,9.664542E-1,2.6796368E-1,1.5763901E-1,-5.974787E-1],"categories":[],"categories_nodes":[],"categories_segments":[],"categories_sizes":[],"default_left":[1,1,1,1,1,1,1,1,1,0,1,1,0,1,1,0,1,0,1,1,1,1,0,1,0,1,1,0,0,0,0,0,0,0,0,0,0,0,0,0,0,0,0],"id":33,"left_children":[1,3,5,7,9,11,13,15,17,-1,19,21,-1,23,25,-1,27,-1,29,31,33,35,-1,37,-1,39,41,-1,-1,-1,-1,-1,-1,-1,-1,-1,-1,-1,-1,-1,-1,-1,-1],"loss_changes":[5.7617064E0,2.9361246E0,2.8854947E0,2.1625657E0,1.3830085E0,1.4009957E0,2.830625E0,1.3171124E0,1.4001775E0,0E0,1.2765818E0,1.823441E0,0E0,3.395526E0,2.148184E0,0E0,4.2841804E-1,0E0,3.3424234E-1,1.2227488E0,3.2517595E0,1.5255774E0,0E0,2.230076E0,0E0,1.511518E0,9.890791E-1,0E0,0E0,0E0,0E0,0E0,0E0,0E0,0E0,0E0,0E0,0E0,0E0,0E0,0E0,0E0,0E0],"parents":[2147483647,0,0,1,1,2,2,3,3,4,4,5,5,6,6,7,7,8,8,10,10,11,11,13,13,14,14,16,16,18,18,19,19,20,20,21,21,23,23,25,25,26,26],"right_children":[2,4,6,8,10,12,14,16,18,-1,20,22,-1,24,26,-1,28,-1,30,32,34,36,-1,38,-1,40,42,-1,-1,-1,-1,-1,-1,-1,-1,-1,-1,-1,-1,-1,-1,-1,-1],"split_conditions":[1.60451E-1,2.0297775E0,5E-1,1.9502535E0,5.147059E-2,5E-1,1.5E0,1.0447787E-1,2E0,3.462136E-2,1.5E0,1.5E0,1.901413E-1,3.1056526E-1,5.2133715E-1,4.8212033E-2,1.156224E-1,-3.3054322E-2,6.842192E-2,1.9707677E0,5.53538E-2,2.6912287E-1,1.451226E-1,7.012765E-2,1.17507815E-1,1.7121297E-1,3.2369246E0,-2.2301735E-2,-1.4599025E-1,3.0807465E-2,1.4365038E-1,-1.5194952E-1,-2.444587E-2,-1.2973945E-1,9.6085474E-2,9.0804875E-2,-4.876752E-2,2.2034518E-2,-1.495381E-1,1.4496814E-1,4.0194552E-2,2.3645854E-2,-8.9621805E-2],"split_indices":[1,7,5,7,1,13,16,12,3,0,0,0,0,4,1,0,4,0,4,15,4,1,0,4,0,1,10,0,0,0,0,0,0,0,0,0,0,0,0,0,0,0,0],"split_type":[0,0,0,0,0,0,0,0,0,0,0,0,0,0,0,0,0,0,0,0,0,0,0,0,0,0,0,0,0,0,0,0,0,0,0,0,0,0,0,0,0,0,0],"sum_hessian":[7.968864E1,2.4935171E1,5.4753464E1,9.409995E0,1.5525176E1,1.0517692E1,4.423577E1,3.9804316E0,5.429564E0,1.4790132E0,1.4046163E1,7.9964337E0,2.5212579E0,7.80686E0,3.642891E1,1.210056E0,2.7703757E0,1.5201918E0,3.909372E0,1.0284809E1,3.7613537E0,5.4440227E0,2.552411E0,6.622783E0,1.1840764E0,3.0972591E1,5.4563193E0,1.4523684E0,1.3180072E0,1.5361623E0,2.37321E0,7.638334E0,2.6464756E0,1.8278617E0,1.9334921E0,1.8703144E0,3.5737083E0,2.1380904E0,4.484693E0,2.790093E0,2.8182499E1,2.4824877E0,2.9738317E0],"tree_param":{"num_deleted":"0","num_feature":"18","num_nodes":"43","size_leaf_vector":"0"}},{"base_weights":[-2.670766E-2,-2.8446862E-1,1.1084419E-1,6.9184387E-1,-3.6881036E-1,-3.3134647E-2,4.878581E-1,-4.799944E-1,1.8881395E-1,4.9471366E-1,-1.8327391E-1,6.409815E-1,-1.327067E-1,-1.0739385E-1,-6.9705105E-1,5.3307766E-1,-3.0424982E-1,-1.10634886E-1,7.462152E-1,-1.0475116E0,-9.319139E-2,9.176218E-1,1.1392422E-1,-5.6880456E-1,2.631123E-1,-3.7485427E-1,3.6303464E-1,-9.6176624E-1,-8.6713985E-2,-9.3012705E-2,9.122651E-1,1.6437507E-1,-3.5112354E-1,3.0091348E-1,8.726874E-1,2.8599195E-2,-5.5794823E-1,-8.9798704E-2,1.1368126E0,8.135926E-1,-4.4321752E-1],"categories":[],"categories_nodes":[],"categories_segments":[],"categories_sizes":[],"default_left":[1,1,1,0,1,1,1,1,1,1,1,1,1,1,1,1,0,1,1,0,1,1,1,0,0,0,0,0,0,0,0,0,0,0,0,0,0,0,0,0,0],"id":34,"left_children":[1,3,5,-1,7,9,11,13,15,17,19,21,23,25,27,29,-1,31,33,-1,35,37,39,-1,-1,-1,-1,-1,-1,-1,-1,-1,-1,-1,-1,-1,-1,-1,-1,-1,-1],"loss_changes":[2.800431E0,2.5158381E0,2.8193402E0,0E0,1.6978452E0,3.1264572E0,1.4471996E0,1.6959949E0,1.0155296E0,1.4151907E0,2.281013E0,1.5969048E0,7.823882E-1,1.2989495E0,2.1225915E0,8.739079E-1,0E0,2.852328E-1,9.293699E-2,0E0,1.6442324E0,1.7606115E0,2.371429E0,0E0,0E0,0E0,0E0,0E0,0E0,0E0,0E0,0E0,0E0,0E0,0E0,0E0,0E0,0E0,0E0,0E0,0E0],"parents":[2147483647,0,0,1,1,2,2,4,4,5,5,6,6,7,7,8,8,9,9,10,10,11,11,12,12,13,13,14,14,15,15,17,17,18,18,20,20,21,21,22,22],"right_children":[2,4,6,-1,8,10,12,14,16,18,20,22,24,26,28,30,-1,32,34,-1,36,38,40,-1,-1,-1,-1,-1,-1,-1,-1,-1,-1,-1,-1,-1,-1,-1,-1,-1,-1],"split_conditions":[1.5E0,5E-1,3.9903178E0,1.0377658E-1,2.5E0,1.0803452E0,1.5E0,1.6663642E-1,3.649857E-1,2.5E0,8.577593E-2,3.5E0,6.432266E-2,7.5E0,1.5E0,2.7678573E-1,-4.5637473E-2,2.5E-1,2.5E0,-1.5712674E-1,2.5E0,9.558824E-2,2.2794119E-1,-8.532069E-2,3.9466847E-2,-5.6228142E-2,5.44552E-2,-1.4426494E-1,-1.3007098E-2,-1.3951906E-2,1.3683978E-1,2.465626E-2,-5.2668534E-2,4.5137025E-2,1.3090311E-1,4.2898795E-3,-8.369224E-2,-1.3469806E-2,1.7052189E-1,1.2203889E-1,-6.648263E-2],"split_indices":[14,6,10,0,16,10,13,1,12,3,12,6,4,3,0,12,0,1,7,0,16,1,1,0,0,0,0,0,0,0,0,0,0,0,0,0,0,0,0,0,0],"split_type":[0,0,0,0,0,0,0,0,0,0,0,0,0,0,0,0,0,0,0,0,0,0,0,0,0,0,0,0,0,0,0,0,0,0,0,0,0,0,0,0,0],"sum_hessian":[7.709506E1,2.6454119E1,5.0640945E1,1.5308326E0,2.4923286E1,3.7306126E1,1.3334821E1,2.089606E1,4.0272245E0,7.7531505E0,2.9552973E1,1.0669291E1,2.6655312E0,8.242213E0,1.2653848E1,2.3236604E0,1.703564E0,2.4400954E0,5.313055E0,1.7863791E0,2.7766594E1,6.5108604E0,4.15843E0,1.060301E0,1.6052302E0,5.384207E0,2.858007E0,8.424278E0,4.22957E0,1.1611494E0,1.162511E0,1.2859955E0,1.1541001E0,1.9226819E0,3.3903732E0,2.2744745E1,5.021848E0,1.2689532E0,5.241907E0,1.6393757E0,2.5190542E0],"tree_param":{"num_deleted":"0","num_feature":"18","num_nodes":"41","size_leaf_vector":"0"}},{"base_weights":[1.1414345E-2,-3.0703893E-1,1.393385E-1,-1.06697604E-1,-7.3174363E-1,2.566277E-1,-3.0716905E-1,-6.207481E-1,1.4695513E-1,-6.13685E-2,-9.8560303E-1,1.3307665E-1,6.0374343E-1,-5.1723856E-1,6.264837E-1,2.6949143E-1,-8.7664837E-1,4.0096736E-1,-3.1847265E-1,-8.8917695E-2,4.4014385E-1,9.9410826E-1,-3.6479164E-2,-7.6555794E-1,4.7029015E-1,-2.4316942E-2,7.169873E-1,2.5443336E-1,-6.700545E-1,-3.7710592E-1,6.085928E-1,6.313747E-1,-7.437992E-2,1.0971621E0,2.0422927E-1,-7.697789E-1,6.348029E-1,-1.097486E0,2.8808102E-1],"categories":[],"categories_nodes":[],"categories_segments":[],"categories_sizes":[],"default_left":[1,1,1,1,1,1,1,1,1,0,0,1,1,1,0,0,0,1,1,1,1,1,1,1,0,0,0,0,0,0,0,0,0,0,0,0,0,0,0],"id":35,"left_children":[1,3,5,7,9,11,13,15,17,-1,-1,19,21,23,-1,-1,-1,25,27,29,31,33,35,37,-1,-1,-1,-1,-1,-1,-1,-1,-1,-1,-1,-1,-1,-1,-1],"loss_changes":[3.1579049E0,1.8130808E0,2.971831E0,2.2130723E0,1.1228466E0,1.8192647E0,2.6672752E0,1.5047362E0,1.5115066E0,0E0,0E0,2.353368E0,2.8714824E0,2.8859777E0,0E0,0E0,0E0,1.0946316E0,1.1151578E0,4.357559E0,1.4651196E0,3.524704E-1,3.0787132E0,3.327869E0,0E0,0E0,0E0,0E0,0E0,0E0,0E0,0E0,0E0,0E0,0E0,0E0,0E0,0E0,0E0],"parents":[2147483647,0,0,1,1,2,2,3,3,4,4,5,5,6,6,7,7,8,8,11,11,12,12,13,13,17,17,18,18,19,19,20,20,21,21,22,22,23,23],"right_children":[2,4,6,8,10,12,14,16,18,-1,-1,20,22,24,-1,-1,-1,26,28,30,32,34,36,38,-1,-1,-1,-1,-1,-1,-1,-1,-1,-1,-1,-1,-1,-1,-1],"split_conditions":[1.5E0,1.0250683E0,5E-1,1.5E0,1.5E0,2.5E0,4.571249E-1,9.450036E-2,3.1257582E0,-9.205275E-3,-1.4784046E-1,3.995195E0,1.5E0,1.5E0,9.397256E-2,4.0423717E-2,-1.3149726E-1,8.715747E-2,2.0121794E0,1.8991137E0,4.570824E-1,5.446428E-1,2.2321428E-1,2.452683E-1,7.054353E-2,-3.6475414E-3,